<?xml version="1.0"?>
<opencv_storage>
<stage6>
  <maxWeakCount>5</maxWeakCount>
  <stageThreshold>-2.2527508437633514e-01</stageThreshold>
  <weakClassifiers>
    <_>
      <internalNodes>
        0 -1 2564282 1.1411203071475029e-02</internalNodes>
      <leafValues>
        -9.1530549526214600e-01 4.6998316049575806e-01</leafValues></_>
    <_>
      <internalNodes>
        0 -1 1598443 -1.3447120785713196e-02</internalNodes>
      <leafValues>
        3.4426215291023254e-01 -8.5766041278839111e-01</leafValues></_>
    <_>
      <internalNodes>
        0 -1 3087007 2.6310259272577241e-05</internalNodes>
      <leafValues>
        3.4287115931510925e-01 -8.8352823257446289e-01</leafValues></_>
    <_>
      <internalNodes>
        0 -1 3447609 -3.7543033249676228e-03</internalNodes>
      <leafValues>
        8.7553173303604126e-01 -4.3863147497177124e-01</leafValues></_>
    <_>
      <internalNodes>
        0 -1 3939084 9.1401133686304092e-03</internalNodes>
      <leafValues>
        -8.2502484321594238e-01 4.4152855873107910e-01</leafValues></_></weakClassifiers></stage6>
</opencv_storage>
