<?xml version="1.0"?>
<opencv_storage>
<stage4>
  <maxWeakCount>5</maxWeakCount>
  <stageThreshold>-9.9915546178817749e-01</stageThreshold>
  <weakClassifiers>
    <_>
      <internalNodes>
        0 -1 2378792 -4.5288018882274628e-02</internalNodes>
      <leafValues>
        6.2474310398101807e-01 -9.5595127344131470e-01</leafValues></_>
    <_>
      <internalNodes>
        0 -1 3336403 -7.1733654476702213e-04</internalNodes>
      <leafValues>
        7.8654992580413818e-01 -5.2324301004409790e-01</leafValues></_>
    <_>
      <internalNodes>
        0 -1 2956782 3.6182929761707783e-03</internalNodes>
      <leafValues>
        -7.6861059665679932e-01 5.2768051624298096e-01</leafValues></_>
    <_>
      <internalNodes>
        0 -1 3548265 3.6310357972979546e-03</internalNodes>
      <leafValues>
        -8.7614500522613525e-01 4.2743381857872009e-01</leafValues></_>
    <_>
      <internalNodes>
        0 -1 2702109 -3.3141090534627438e-03</internalNodes>
      <leafValues>
        8.6408519744873047e-01 -4.8857733607292175e-01</leafValues></_></weakClassifiers></stage4>
</opencv_storage>
