<?xml version="1.0"?>
<opencv_storage>
<cascade>
  <stageType>BOOST</stageType>
  <featureType>HAAR</featureType>
  <height>40</height>
  <width>40</width>
  <stageParams>
    <boostType>GAB</boostType>
    <minHitRate>9.4999998807907104e-01</minHitRate>
    <maxFalseAlarm>3.0000001192092896e-01</maxFalseAlarm>
    <weightTrimRate>9.4999999999999996e-01</weightTrimRate>
    <maxDepth>1</maxDepth>
    <maxWeakCount>100</maxWeakCount></stageParams>
  <featureParams>
    <maxCatCount>0</maxCatCount>
    <featSize>1</featSize>
    <mode>ALL</mode></featureParams>
  <stageNum>10</stageNum>
  <stages>
    <!-- stage 0 -->
    <_>
      <maxWeakCount>3</maxWeakCount>
      <stageThreshold>-4.2657920718193054e-01</stageThreshold>
      <weakClassifiers>
        <_>
          <internalNodes>
            0 -1 42 -9.2297391965985298e-03</internalNodes>
          <leafValues>
            7.0768481492996216e-01 -6.6135734319686890e-01</leafValues></_>
        <_>
          <internalNodes>
            0 -1 13 8.7741212919354439e-03</internalNodes>
          <leafValues>
            -5.9708178043365479e-01 5.9648436307907104e-01</leafValues></_>
        <_>
          <internalNodes>
            0 -1 36 -9.5416727708652616e-04</internalNodes>
          <leafValues>
            8.3185994625091553e-01 -3.9743524789810181e-01</leafValues></_></weakClassifiers></_>
    <!-- stage 1 -->
    <_>
      <maxWeakCount>3</maxWeakCount>
      <stageThreshold>-5.0813031196594238e-01</stageThreshold>
      <weakClassifiers>
        <_>
          <internalNodes>
            0 -1 14 8.0094877630472183e-03</internalNodes>
          <leafValues>
            -6.6917860507965088e-01 6.3874828815460205e-01</leafValues></_>
        <_>
          <internalNodes>
            0 -1 12 7.8451037406921387e-03</internalNodes>
          <leafValues>
            -6.8608021736145020e-01 5.4334276914596558e-01</leafValues></_>
        <_>
          <internalNodes>
            0 -1 26 -4.8021186375990510e-04</internalNodes>
          <leafValues>
            7.1953469514846802e-01 -4.6079838275909424e-01</leafValues></_></weakClassifiers></_>
    <!-- stage 2 -->
    <_>
      <maxWeakCount>4</maxWeakCount>
      <stageThreshold>2.6616781949996948e-01</stageThreshold>
      <weakClassifiers>
        <_>
          <internalNodes>
            0 -1 18 -6.4651723951101303e-03</internalNodes>
          <leafValues>
            5.5555558204650879e-01 -6.6133105754852295e-01</leafValues></_>
        <_>
          <internalNodes>
            0 -1 25 -6.2904215883463621e-04</internalNodes>
          <leafValues>
            7.6262068748474121e-01 -4.1714307665824890e-01</leafValues></_>
        <_>
          <internalNodes>
            0 -1 40 -5.4095955565571785e-03</internalNodes>
          <leafValues>
            5.6947231292724609e-01 -4.5849320292472839e-01</leafValues></_>
        <_>
          <internalNodes>
            0 -1 27 3.6033727228641510e-03</internalNodes>
          <leafValues>
            -4.0459406375885010e-01 8.2043713331222534e-01</leafValues></_></weakClassifiers></_>
    <!-- stage 3 -->
    <_>
      <maxWeakCount>4</maxWeakCount>
      <stageThreshold>1.3933415710926056e-01</stageThreshold>
      <weakClassifiers>
        <_>
          <internalNodes>
            0 -1 15 -9.9158659577369690e-03</internalNodes>
          <leafValues>
            3.7611055374145508e-01 -7.8234088420867920e-01</leafValues></_>
        <_>
          <internalNodes>
            0 -1 43 9.1412356123328209e-03</internalNodes>
          <leafValues>
            -6.9360613822937012e-01 3.5521265864372253e-01</leafValues></_>
        <_>
          <internalNodes>
            0 -1 39 -4.8424163833260536e-03</internalNodes>
          <leafValues>
            -8.0390465259552002e-01 2.6754146814346313e-01</leafValues></_>
        <_>
          <internalNodes>
            0 -1 7 6.5559204667806625e-03</internalNodes>
          <leafValues>
            -7.4386411905288696e-01 2.9892089962959290e-01</leafValues></_></weakClassifiers></_>
    <!-- stage 4 -->
    <_>
      <maxWeakCount>5</maxWeakCount>
      <stageThreshold>5.8885249309241772e-03</stageThreshold>
      <weakClassifiers>
        <_>
          <internalNodes>
            0 -1 16 8.1389583647251129e-03</internalNodes>
          <leafValues>
            3.0372425913810730e-01 -7.8294575214385986e-01</leafValues></_>
        <_>
          <internalNodes>
            0 -1 33 -1.0992020834237337e-03</internalNodes>
          <leafValues>
            6.5234059095382690e-01 -3.8178774714469910e-01</leafValues></_>
        <_>
          <internalNodes>
            0 -1 22 -1.1437765788286924e-03</internalNodes>
          <leafValues>
            6.5996921062469482e-01 -3.8975611329078674e-01</leafValues></_>
        <_>
          <internalNodes>
            0 -1 24 -6.1976858414709568e-03</internalNodes>
          <leafValues>
            -8.1921601295471191e-01 2.5873497128486633e-01</leafValues></_>
        <_>
          <internalNodes>
            0 -1 28 8.7617710232734680e-03</internalNodes>
          <leafValues>
            2.6751479506492615e-01 -8.2907533645629883e-01</leafValues></_></weakClassifiers></_>
    <!-- stage 5 -->
    <_>
      <maxWeakCount>6</maxWeakCount>
      <stageThreshold>-1.2632191181182861e-02</stageThreshold>
      <weakClassifiers>
        <_>
          <internalNodes>
            0 -1 11 1.1333277449011803e-02</internalNodes>
          <leafValues>
            -7.1399492025375366e-01 3.4770756959915161e-01</leafValues></_>
        <_>
          <internalNodes>
            0 -1 23 3.3009175676852465e-03</internalNodes>
          <leafValues>
            -3.0801483988761902e-01 6.7242550849914551e-01</leafValues></_>
        <_>
          <internalNodes>
            0 -1 5 2.1463951095938683e-02</internalNodes>
          <leafValues>
            -6.2836080789566040e-01 3.4664595127105713e-01</leafValues></_>
        <_>
          <internalNodes>
            0 -1 37 2.7138995938003063e-03</internalNodes>
          <leafValues>
            -3.0110850930213928e-01 6.2480103969573975e-01</leafValues></_>
        <_>
          <internalNodes>
            0 -1 9 -1.0728795314207673e-03</internalNodes>
          <leafValues>
            8.8945084810256958e-01 -2.3481310904026031e-01</leafValues></_>
        <_>
          <internalNodes>
            0 -1 46 -1.7841979861259460e-02</internalNodes>
          <leafValues>
            -8.1693071126937866e-01 2.7274370193481445e-01</leafValues></_></weakClassifiers></_>
    <!-- stage 6 -->
    <_>
      <maxWeakCount>6</maxWeakCount>
      <stageThreshold>-5.3945702314376831e-01</stageThreshold>
      <weakClassifiers>
        <_>
          <internalNodes>
            0 -1 38 6.9633917883038521e-04</internalNodes>
          <leafValues>
            3.0861243605613708e-01 -7.0879119634628296e-01</leafValues></_>
        <_>
          <internalNodes>
            0 -1 1 4.9990810453891754e-02</internalNodes>
          <leafValues>
            -5.7989782094955444e-01 3.2988429069519043e-01</leafValues></_>
        <_>
          <internalNodes>
            0 -1 0 2.0925605203956366e-03</internalNodes>
          <leafValues>
            2.5371408462524414e-01 -7.3295485973358154e-01</leafValues></_>
        <_>
          <internalNodes>
            0 -1 3 -1.1038009542971849e-03</internalNodes>
          <leafValues>
            -7.3942273855209351e-01 2.4087807536125183e-01</leafValues></_>
        <_>
          <internalNodes>
            0 -1 31 4.1905571706593037e-03</internalNodes>
          <leafValues>
            -3.1762242317199707e-01 6.2387788295745850e-01</leafValues></_>
        <_>
          <internalNodes>
            0 -1 32 -1.2845232849940658e-03</internalNodes>
          <leafValues>
            5.3611004352569580e-01 -4.4514137506484985e-01</leafValues></_></weakClassifiers></_>
    <!-- stage 7 -->
    <_>
      <maxWeakCount>5</maxWeakCount>
      <stageThreshold>1.6666251420974731e-01</stageThreshold>
      <weakClassifiers>
        <_>
          <internalNodes>
            0 -1 45 3.8519897498190403e-03</internalNodes>
          <leafValues>
            2.9903689026832581e-01 -7.3034995794296265e-01</leafValues></_>
        <_>
          <internalNodes>
            0 -1 2 1.5878129750490189e-02</internalNodes>
          <leafValues>
            -6.3762372732162476e-01 2.5169989466667175e-01</leafValues></_>
        <_>
          <internalNodes>
            0 -1 47 -1.5788698510732502e-04</internalNodes>
          <leafValues>
            -7.7348607778549194e-01 2.2532004117965698e-01</leafValues></_>
        <_>
          <internalNodes>
            0 -1 47 1.0916044993791729e-04</internalNodes>
          <leafValues>
            2.2657719254493713e-01 -7.4647086858749390e-01</leafValues></_>
        <_>
          <internalNodes>
            0 -1 10 -7.8793838620185852e-03</internalNodes>
          <leafValues>
            -7.7325046062469482e-01 1.9341535866260529e-01</leafValues></_></weakClassifiers></_>
    <!-- stage 8 -->
    <_>
      <maxWeakCount>7</maxWeakCount>
      <stageThreshold>1.3554510474205017e-01</stageThreshold>
      <weakClassifiers>
        <_>
          <internalNodes>
            0 -1 34 2.3666156455874443e-02</internalNodes>
          <leafValues>
            -6.6983121633529663e-01 3.0945420265197754e-01</leafValues></_>
        <_>
          <internalNodes>
            0 -1 17 1.1377271730452776e-03</internalNodes>
          <leafValues>
            -2.5765892863273621e-01 6.7140704393386841e-01</leafValues></_>
        <_>
          <internalNodes>
            0 -1 30 3.9795963093638420e-03</internalNodes>
          <leafValues>
            -2.7992060780525208e-01 6.6300421953201294e-01</leafValues></_>
        <_>
          <internalNodes>
            0 -1 29 -1.3415360590443015e-03</internalNodes>
          <leafValues>
            6.1664968729019165e-01 -4.2143827676773071e-01</leafValues></_>
        <_>
          <internalNodes>
            0 -1 4 6.3267126679420471e-03</internalNodes>
          <leafValues>
            -6.9258421659469604e-01 2.7800166606903076e-01</leafValues></_>
        <_>
          <internalNodes>
            0 -1 41 -1.1458706576377153e-03</internalNodes>
          <leafValues>
            8.7591391801834106e-01 -2.2558566927909851e-01</leafValues></_>
        <_>
          <internalNodes>
            0 -1 8 1.3920413330197334e-03</internalNodes>
          <leafValues>
            -1.6871221363544464e-01 8.1594431400299072e-01</leafValues></_></weakClassifiers></_>
    <!-- stage 9 -->
    <_>
      <maxWeakCount>6</maxWeakCount>
      <stageThreshold>-3.9702102541923523e-01</stageThreshold>
      <weakClassifiers>
        <_>
          <internalNodes>
            0 -1 44 1.3234866783022881e-02</internalNodes>
          <leafValues>
            -7.3206347227096558e-01 1.6636942327022552e-01</leafValues></_>
        <_>
          <internalNodes>
            0 -1 6 -8.1902102101594210e-04</internalNodes>
          <leafValues>
            -8.3941996097564697e-01 1.7213515937328339e-01</leafValues></_>
        <_>
          <internalNodes>
            0 -1 21 -8.0068036913871765e-03</internalNodes>
          <leafValues>
            -9.3220537900924683e-01 1.4612872898578644e-01</leafValues></_>
        <_>
          <internalNodes>
            0 -1 19 8.1370417028665543e-03</internalNodes>
          <leafValues>
            2.3925900459289551e-01 -8.0862039327621460e-01</leafValues></_>
        <_>
          <internalNodes>
            0 -1 35 3.2454198226332664e-03</internalNodes>
          <leafValues>
            -3.4010949730873108e-01 5.0952512025833130e-01</leafValues></_>
        <_>
          <internalNodes>
            0 -1 20 8.0115981400012970e-03</internalNodes>
          <leafValues>
            2.3075127601623535e-01 -7.6395493745803833e-01</leafValues></_></weakClassifiers></_></stages>
  <features>
    <_>
      <rects>
        <_>
          0 0 12 3 -1.</_>
        <_>
          6 0 6 3 2.</_></rects>
      <tilted>0</tilted></_>
    <_>
      <rects>
        <_>
          0 7 40 14 -1.</_>
        <_>
          10 7 20 14 2.</_></rects>
      <tilted>0</tilted></_>
    <_>
      <rects>
        <_>
          0 12 12 15 -1.</_>
        <_>
          6 12 6 15 2.</_></rects>
      <tilted>0</tilted></_>
    <_>
      <rects>
        <_>
          1 0 10 2 -1.</_>
        <_>
          6 0 5 2 2.</_></rects>
      <tilted>0</tilted></_>
    <_>
      <rects>
        <_>
          1 0 22 12 -1.</_>
        <_>
          1 0 11 6 2.</_>
        <_>
          12 6 11 6 2.</_></rects>
      <tilted>0</tilted></_>
    <_>
      <rects>
        <_>
          1 18 36 16 -1.</_>
        <_>
          13 18 12 16 3.</_></rects>
      <tilted>0</tilted></_>
    <_>
      <rects>
        <_>
          2 0 6 4 -1.</_>
        <_>
          2 0 3 2 2.</_>
        <_>
          5 2 3 2 2.</_></rects>
      <tilted>0</tilted></_>
    <_>
      <rects>
        <_>
          4 12 12 16 -1.</_>
        <_>
          8 12 4 16 3.</_></rects>
      <tilted>0</tilted></_>
    <_>
      <rects>
        <_>
          5 18 3 1 -1.</_>
        <_>
          6 18 1 1 3.</_></rects>
      <tilted>0</tilted></_>
    <_>
      <rects>
        <_>
          9 27 2 2 -1.</_>
        <_>
          9 27 1 1 2.</_>
        <_>
          10 28 1 1 2.</_></rects>
      <tilted>0</tilted></_>
    <_>
      <rects>
        <_>
          10 16 20 8 -1.</_>
        <_>
          15 16 10 8 2.</_></rects>
      <tilted>0</tilted></_>
    <_>
      <rects>
        <_>
          11 3 18 10 -1.</_>
        <_>
          11 8 18 5 2.</_></rects>
      <tilted>0</tilted></_>
    <_>
      <rects>
        <_>
          12 4 15 12 -1.</_>
        <_>
          12 8 15 4 3.</_></rects>
      <tilted>0</tilted></_>
    <_>
      <rects>
        <_>
          13 4 9 9 -1.</_>
        <_>
          16 7 3 9 3.</_></rects>
      <tilted>1</tilted></_>
    <_>
      <rects>
        <_>
          13 18 9 9 -1.</_>
        <_>
          10 21 9 3 3.</_></rects>
      <tilted>1</tilted></_>
    <_>
      <rects>
        <_>
          13 28 15 10 -1.</_>
        <_>
          13 33 15 5 2.</_></rects>
      <tilted>0</tilted></_>
    <_>
      <rects>
        <_>
          14 14 12 12 -1.</_>
        <_>
          18 18 4 4 9.</_></rects>
      <tilted>0</tilted></_>
    <_>
      <rects>
        <_>
          15 18 3 1 -1.</_>
        <_>
          16 18 1 1 3.</_></rects>
      <tilted>0</tilted></_>
    <_>
      <rects>
        <_>
          16 1 6 13 -1.</_>
        <_>
          16 1 3 13 2.</_></rects>
      <tilted>1</tilted></_>
    <_>
      <rects>
        <_>
          16 16 9 9 -1.</_>
        <_>
          19 19 3 3 9.</_></rects>
      <tilted>0</tilted></_>
    <_>
      <rects>
        <_>
          16 19 7 15 -1.</_>
        <_>
          16 24 7 5 3.</_></rects>
      <tilted>0</tilted></_>
    <_>
      <rects>
        <_>
          17 17 6 6 -1.</_>
        <_>
          19 19 2 2 9.</_></rects>
      <tilted>0</tilted></_>
    <_>
      <rects>
        <_>
          17 19 3 2 -1.</_>
        <_>
          18 19 1 2 3.</_></rects>
      <tilted>0</tilted></_>
    <_>
      <rects>
        <_>
          17 20 3 3 -1.</_>
        <_>
          18 21 1 1 9.</_></rects>
      <tilted>0</tilted></_>
    <_>
      <rects>
        <_>
          18 11 12 7 -1.</_>
        <_>
          21 14 6 7 2.</_></rects>
      <tilted>1</tilted></_>
    <_>
      <rects>
        <_>
          18 18 4 1 -1.</_>
        <_>
          19 18 2 1 2.</_></rects>
      <tilted>0</tilted></_>
    <_>
      <rects>
        <_>
          18 18 1 4 -1.</_>
        <_>
          18 19 1 2 2.</_></rects>
      <tilted>0</tilted></_>
    <_>
      <rects>
        <_>
          18 18 3 3 -1.</_>
        <_>
          19 19 1 1 9.</_></rects>
      <tilted>0</tilted></_>
    <_>
      <rects>
        <_>
          19 5 16 14 -1.</_>
        <_>
          23 9 8 14 2.</_></rects>
      <tilted>1</tilted></_>
    <_>
      <rects>
        <_>
          19 17 2 4 -1.</_>
        <_>
          19 18 2 2 2.</_></rects>
      <tilted>0</tilted></_>
    <_>
      <rects>
        <_>
          19 18 3 3 -1.</_>
        <_>
          20 19 1 1 9.</_></rects>
      <tilted>0</tilted></_>
    <_>
      <rects>
        <_>
          19 19 3 3 -1.</_>
        <_>
          20 20 1 1 9.</_></rects>
      <tilted>0</tilted></_>
    <_>
      <rects>
        <_>
          19 19 4 2 -1.</_>
        <_>
          20 19 2 2 2.</_></rects>
      <tilted>0</tilted></_>
    <_>
      <rects>
        <_>
          19 20 2 3 -1.</_>
        <_>
          19 21 2 1 3.</_></rects>
      <tilted>0</tilted></_>
    <_>
      <rects>
        <_>
          20 11 18 18 -1.</_>
        <_>
          26 11 6 18 3.</_></rects>
      <tilted>0</tilted></_>
    <_>
      <rects>
        <_>
          20 17 3 3 -1.</_>
        <_>
          21 18 1 1 9.</_></rects>
      <tilted>0</tilted></_>
    <_>
      <rects>
        <_>
          20 19 3 2 -1.</_>
        <_>
          21 19 1 2 3.</_></rects>
      <tilted>0</tilted></_>
    <_>
      <rects>
        <_>
          20 20 3 3 -1.</_>
        <_>
          21 21 1 1 9.</_></rects>
      <tilted>0</tilted></_>
    <_>
      <rects>
        <_>
          22 5 13 16 -1.</_>
        <_>
          18 9 13 8 2.</_></rects>
      <tilted>1</tilted></_>
    <_>
      <rects>
        <_>
          24 11 6 12 -1.</_>
        <_>
          21 14 6 6 2.</_></rects>
      <tilted>1</tilted></_>
    <_>
      <rects>
        <_>
          24 21 8 12 -1.</_>
        <_>
          24 21 4 6 2.</_>
        <_>
          28 27 4 6 2.</_></rects>
      <tilted>0</tilted></_>
    <_>
      <rects>
        <_>
          27 9 2 2 -1.</_>
        <_>
          27 9 1 1 2.</_>
        <_>
          28 10 1 1 2.</_></rects>
      <tilted>0</tilted></_>
    <_>
      <rects>
        <_>
          27 11 10 18 -1.</_>
        <_>
          32 11 5 18 2.</_></rects>
      <tilted>0</tilted></_>
    <_>
      <rects>
        <_>
          28 4 9 9 -1.</_>
        <_>
          25 7 9 3 3.</_></rects>
      <tilted>1</tilted></_>
    <_>
      <rects>
        <_>
          30 22 8 8 -1.</_>
        <_>
          30 22 4 8 2.</_></rects>
      <tilted>1</tilted></_>
    <_>
      <rects>
        <_>
          32 3 6 22 -1.</_>
        <_>
          32 3 6 11 2.</_></rects>
      <tilted>1</tilted></_>
    <_>
      <rects>
        <_>
          33 15 5 20 -1.</_>
        <_>
          33 15 5 10 2.</_></rects>
      <tilted>1</tilted></_>
    <_>
      <rects>
        <_>
          39 4 1 4 -1.</_>
        <_>
          39 5 1 2 2.</_></rects>
      <tilted>0</tilted></_></features></cascade>
</opencv_storage>
