<?xml version="1.0"?>
<opencv_storage>
<stage9>
  <maxWeakCount>6</maxWeakCount>
  <stageThreshold>-3.9702102541923523e-01</stageThreshold>
  <weakClassifiers>
    <_>
      <internalNodes>
        0 -1 1898740 1.3234866783022881e-02</internalNodes>
      <leafValues>
        -7.3206347227096558e-01 1.6636942327022552e-01</leafValues></_>
    <_>
      <internalNodes>
        0 -1 159621 -8.1902102101594210e-04</internalNodes>
      <leafValues>
        -8.3941996097564697e-01 1.7213515937328339e-01</leafValues></_>
    <_>
      <internalNodes>
        0 -1 1282787 -8.0068036913871765e-03</internalNodes>
      <leafValues>
        -9.3220537900924683e-01 1.4612872898578644e-01</leafValues></_>
    <_>
      <internalNodes>
        0 -1 1219548 8.1370417028665543e-03</internalNodes>
      <leafValues>
        2.3925900459289551e-01 -8.0862039327621460e-01</leafValues></_>
    <_>
      <internalNodes>
        0 -1 1457910 3.2454198226332664e-03</internalNodes>
      <leafValues>
        -3.4010949730873108e-01 5.0952512025833130e-01</leafValues></_>
    <_>
      <internalNodes>
        0 -1 1225606 8.0115981400012970e-03</internalNodes>
      <leafValues>
        2.3075127601623535e-01 -7.6395493745803833e-01</leafValues></_></weakClassifiers></stage9>
</opencv_storage>
