<?xml version="1.0"?>
<opencv_storage>
<stage5>
  <maxWeakCount>6</maxWeakCount>
  <stageThreshold>-1.2632191181182861e-02</stageThreshold>
  <weakClassifiers>
    <_>
      <internalNodes>
        0 -1 851503 1.1333277449011803e-02</internalNodes>
      <leafValues>
        -7.1399492025375366e-01 3.4770756959915161e-01</leafValues></_>
    <_>
      <internalNodes>
        0 -1 1287497 3.3009175676852465e-03</internalNodes>
      <leafValues>
        -3.0801483988761902e-01 6.7242550849914551e-01</leafValues></_>
    <_>
      <internalNodes>
        0 -1 136654 2.1463951095938683e-02</internalNodes>
      <leafValues>
        -6.2836080789566040e-01 3.4664595127105713e-01</leafValues></_>
    <_>
      <internalNodes>
        0 -1 1462474 2.7138995938003063e-03</internalNodes>
      <leafValues>
        -3.0110850930213928e-01 6.2480103969573975e-01</leafValues></_>
    <_>
      <internalNodes>
        0 -1 759276 -1.0728795314207673e-03</internalNodes>
      <leafValues>
        8.8945084810256958e-01 -2.3481310904026031e-01</leafValues></_>
    <_>
      <internalNodes>
        0 -1 1972099 -1.7841979861259460e-02</internalNodes>
      <leafValues>
        -8.1693071126937866e-01 2.7274370193481445e-01</leafValues></_></weakClassifiers></stage5>
</opencv_storage>
