<?xml version="1.0"?>
<opencv_storage>
<cascade>
  <stageType>BOOST</stageType>
  <featureType>HAAR</featureType>
  <height>40</height>
  <width>40</width>
  <stageParams>
    <boostType>GAB</boostType>
    <minHitRate>9.9900001287460327e-01</minHitRate>
    <maxFalseAlarm>3.4999999403953552e-01</maxFalseAlarm>
    <weightTrimRate>9.4999999999999996e-01</weightTrimRate>
    <maxDepth>1</maxDepth>
    <maxWeakCount>100</maxWeakCount></stageParams>
  <featureParams>
    <maxCatCount>0</maxCatCount>
    <featSize>1</featSize>
    <mode>ALL</mode></featureParams>
  <stageNum>9</stageNum>
  <stages>
    <!-- stage 0 -->
    <_>
      <maxWeakCount>2</maxWeakCount>
      <stageThreshold>-2.2500020265579224e-01</stageThreshold>
      <weakClassifiers>
        <_>
          <internalNodes>
            0 -1 10 1.6138989478349686e-02</internalNodes>
          <leafValues>
            -9.8977357149124146e-01 8.7048333883285522e-01</leafValues></_>
        <_>
          <internalNodes>
            0 -1 3 -4.6271983534097672e-02</internalNodes>
          <leafValues>
            7.6477336883544922e-01 -9.7428119182586670e-01</leafValues></_></weakClassifiers></_>
    <!-- stage 1 -->
    <_>
      <maxWeakCount>2</maxWeakCount>
      <stageThreshold>-3.5523036122322083e-01</stageThreshold>
      <weakClassifiers>
        <_>
          <internalNodes>
            0 -1 18 1.7125269398093224e-02</internalNodes>
          <leafValues>
            -9.8303776979446411e-01 8.0571949481964111e-01</leafValues></_>
        <_>
          <internalNodes>
            0 -1 13 7.6314839534461498e-03</internalNodes>
          <leafValues>
            -9.2992126941680908e-01 6.2780737876892090e-01</leafValues></_></weakClassifiers></_>
    <!-- stage 2 -->
    <_>
      <maxWeakCount>4</maxWeakCount>
      <stageThreshold>-6.6481310129165649e-01</stageThreshold>
      <weakClassifiers>
        <_>
          <internalNodes>
            0 -1 9 -4.7644570469856262e-02</internalNodes>
          <leafValues>
            7.0463407039642334e-01 -9.4626367092132568e-01</leafValues></_>
        <_>
          <internalNodes>
            0 -1 14 8.5212811827659607e-03</internalNodes>
          <leafValues>
            -8.9607006311416626e-01 6.1271542310714722e-01</leafValues></_>
        <_>
          <internalNodes>
            0 -1 31 7.7957762405276299e-03</internalNodes>
          <leafValues>
            -9.0887576341629028e-01 4.8440197110176086e-01</leafValues></_>
        <_>
          <internalNodes>
            0 -1 20 -6.7543843761086464e-04</internalNodes>
          <leafValues>
            5.7761085033416748e-01 -9.1305840015411377e-01</leafValues></_></weakClassifiers></_>
    <!-- stage 3 -->
    <_>
      <maxWeakCount>4</maxWeakCount>
      <stageThreshold>-6.5124756097793579e-01</stageThreshold>
      <weakClassifiers>
        <_>
          <internalNodes>
            0 -1 16 7.3823397979140282e-03</internalNodes>
          <leafValues>
            -8.4120351076126099e-01 6.5400475263595581e-01</leafValues></_>
        <_>
          <internalNodes>
            0 -1 27 5.0149192102253437e-03</internalNodes>
          <leafValues>
            -8.3890318870544434e-01 5.6632339954376221e-01</leafValues></_>
        <_>
          <internalNodes>
            0 -1 11 -4.6514924615621567e-03</internalNodes>
          <leafValues>
            5.1757639646530151e-01 -7.8506320714950562e-01</leafValues></_>
        <_>
          <internalNodes>
            0 -1 35 -2.6891931891441345e-02</internalNodes>
          <leafValues>
            4.0869572758674622e-01 -9.4308060407638550e-01</leafValues></_></weakClassifiers></_>
    <!-- stage 4 -->
    <_>
      <maxWeakCount>5</maxWeakCount>
      <stageThreshold>-9.3423110246658325e-01</stageThreshold>
      <weakClassifiers>
        <_>
          <internalNodes>
            0 -1 5 -1.4941286295652390e-02</internalNodes>
          <leafValues>
            5.4181253910064697e-01 -9.6124863624572754e-01</leafValues></_>
        <_>
          <internalNodes>
            0 -1 22 1.3085515238344669e-03</internalNodes>
          <leafValues>
            -7.0991659164428711e-01 5.0424683094024658e-01</leafValues></_>
        <_>
          <internalNodes>
            0 -1 32 1.3139229267835617e-03</internalNodes>
          <leafValues>
            -6.9763922691345215e-01 5.3767347335815430e-01</leafValues></_>
        <_>
          <internalNodes>
            0 -1 36 -2.6541904080659151e-03</internalNodes>
          <leafValues>
            8.0495691299438477e-01 -4.9853020906448364e-01</leafValues></_>
        <_>
          <internalNodes>
            0 -1 21 1.2255933135747910e-02</internalNodes>
          <leafValues>
            -9.4569754600524902e-01 4.3004238605499268e-01</leafValues></_></weakClassifiers></_>
    <!-- stage 5 -->
    <_>
      <maxWeakCount>5</maxWeakCount>
      <stageThreshold>-5.1250940561294556e-01</stageThreshold>
      <weakClassifiers>
        <_>
          <internalNodes>
            0 -1 26 1.7905994318425655e-03</internalNodes>
          <leafValues>
            5.7145714759826660e-01 -9.3089634180068970e-01</leafValues></_>
        <_>
          <internalNodes>
            0 -1 30 -2.1129416301846504e-02</internalNodes>
          <leafValues>
            3.1938341259956360e-01 -9.4304156303405762e-01</leafValues></_>
        <_>
          <internalNodes>
            0 -1 12 -1.5451796352863312e-02</internalNodes>
          <leafValues>
            3.5334247350692749e-01 -9.2560875415802002e-01</leafValues></_>
        <_>
          <internalNodes>
            0 -1 37 5.8110645040869713e-03</internalNodes>
          <leafValues>
            -5.9859287738800049e-01 6.0246682167053223e-01</leafValues></_>
        <_>
          <internalNodes>
            0 -1 13 9.2884469777345657e-03</internalNodes>
          <leafValues>
            -8.3386915922164917e-01 3.4425389766693115e-01</leafValues></_></weakClassifiers></_>
    <!-- stage 6 -->
    <_>
      <maxWeakCount>6</maxWeakCount>
      <stageThreshold>-3.3528304100036621e-01</stageThreshold>
      <weakClassifiers>
        <_>
          <internalNodes>
            0 -1 24 2.5019551685545594e-05</internalNodes>
          <leafValues>
            4.6828252077102661e-01 -8.5689353942871094e-01</leafValues></_>
        <_>
          <internalNodes>
            0 -1 19 8.0885220086202025e-05</internalNodes>
          <leafValues>
            3.1405070424079895e-01 -8.8509935140609741e-01</leafValues></_>
        <_>
          <internalNodes>
            0 -1 0 1.7578562721610069e-02</internalNodes>
          <leafValues>
            -5.0054115056991577e-01 5.8477836847305298e-01</leafValues></_>
        <_>
          <internalNodes>
            0 -1 7 -4.2715340852737427e-02</internalNodes>
          <leafValues>
            3.1096667051315308e-01 -9.3374979496002197e-01</leafValues></_>
        <_>
          <internalNodes>
            0 -1 10 1.7998086288571358e-02</internalNodes>
          <leafValues>
            -9.4482588768005371e-01 3.4082964062690735e-01</leafValues></_>
        <_>
          <internalNodes>
            0 -1 8 -3.2408513128757477e-02</internalNodes>
          <leafValues>
            2.5664061307907104e-01 -8.3460640907287598e-01</leafValues></_></weakClassifiers></_>
    <!-- stage 7 -->
    <_>
      <maxWeakCount>8</maxWeakCount>
      <stageThreshold>-7.7702659368515015e-01</stageThreshold>
      <weakClassifiers>
        <_>
          <internalNodes>
            0 -1 29 3.8765557110309601e-03</internalNodes>
          <leafValues>
            4.1989150643348694e-01 -8.9931970834732056e-01</leafValues></_>
        <_>
          <internalNodes>
            0 -1 4 -2.2472966462373734e-02</internalNodes>
          <leafValues>
            2.7108439803123474e-01 -9.4741827249526978e-01</leafValues></_>
        <_>
          <internalNodes>
            0 -1 31 6.9382549263536930e-03</internalNodes>
          <leafValues>
            -9.0676778554916382e-01 2.3538570106029510e-01</leafValues></_>
        <_>
          <internalNodes>
            0 -1 33 -3.8082129321992397e-05</internalNodes>
          <leafValues>
            -7.9660040140151978e-01 3.0876776576042175e-01</leafValues></_>
        <_>
          <internalNodes>
            0 -1 2 3.0677445232868195e-02</internalNodes>
          <leafValues>
            -4.8215085268020630e-01 5.8676034212112427e-01</leafValues></_>
        <_>
          <internalNodes>
            0 -1 17 -2.7391200885176659e-02</internalNodes>
          <leafValues>
            2.7825662493705750e-01 -9.2474710941314697e-01</leafValues></_>
        <_>
          <internalNodes>
            0 -1 16 1.0159273631870747e-02</internalNodes>
          <leafValues>
            -7.0681017637252808e-01 3.5842454433441162e-01</leafValues></_>
        <_>
          <internalNodes>
            0 -1 28 -5.1398048526607454e-05</internalNodes>
          <leafValues>
            -8.8789397478103638e-01 2.5789311528205872e-01</leafValues></_></weakClassifiers></_>
    <!-- stage 8 -->
    <_>
      <maxWeakCount>7</maxWeakCount>
      <stageThreshold>-8.5624724626541138e-01</stageThreshold>
      <weakClassifiers>
        <_>
          <internalNodes>
            0 -1 14 7.4855936691164970e-03</internalNodes>
          <leafValues>
            -8.6596584320068359e-01 4.2314714193344116e-01</leafValues></_>
        <_>
          <internalNodes>
            0 -1 6 -2.3900635540485382e-02</internalNodes>
          <leafValues>
            2.6144719123840332e-01 -9.4348913431167603e-01</leafValues></_>
        <_>
          <internalNodes>
            0 -1 15 -2.1441742777824402e-02</internalNodes>
          <leafValues>
            2.1610225737094879e-01 -9.5212459564208984e-01</leafValues></_>
        <_>
          <internalNodes>
            0 -1 1 1.4387503266334534e-02</internalNodes>
          <leafValues>
            -4.5943033695220947e-01 5.3941607475280762e-01</leafValues></_>
        <_>
          <internalNodes>
            0 -1 34 2.8467369702411816e-05</internalNodes>
          <leafValues>
            2.7523639798164368e-01 -8.9567369222640991e-01</leafValues></_>
        <_>
          <internalNodes>
            0 -1 23 -7.8219443093985319e-04</internalNodes>
          <leafValues>
            2.6540350914001465e-01 -8.5667157173156738e-01</leafValues></_>
        <_>
          <internalNodes>
            0 -1 25 2.0147883333265781e-03</internalNodes>
          <leafValues>
            -4.6974223852157593e-01 6.2186968326568604e-01</leafValues></_></weakClassifiers></_></stages>
  <features>
    <_>
      <rects>
        <_>
          0 0 3 40 -1.</_>
        <_>
          0 10 3 20 2.</_></rects>
      <tilted>0</tilted></_>
    <_>
      <rects>
        <_>
          0 1 40 2 -1.</_>
        <_>
          10 1 20 2 2.</_></rects>
      <tilted>0</tilted></_>
    <_>
      <rects>
        <_>
          0 36 40 4 -1.</_>
        <_>
          10 36 20 4 2.</_></rects>
      <tilted>0</tilted></_>
    <_>
      <rects>
        <_>
          2 12 36 16 -1.</_>
        <_>
          11 12 18 16 2.</_></rects>
      <tilted>0</tilted></_>
    <_>
      <rects>
        <_>
          2 14 24 15 -1.</_>
        <_>
          10 14 8 15 3.</_></rects>
      <tilted>0</tilted></_>
    <_>
      <rects>
        <_>
          3 9 30 27 -1.</_>
        <_>
          13 18 10 9 9.</_></rects>
      <tilted>0</tilted></_>
    <_>
      <rects>
        <_>
          7 3 24 21 -1.</_>
        <_>
          15 10 8 7 9.</_></rects>
      <tilted>0</tilted></_>
    <_>
      <rects>
        <_>
          9 3 27 27 -1.</_>
        <_>
          18 12 9 9 9.</_></rects>
      <tilted>0</tilted></_>
    <_>
      <rects>
        <_>
          11 18 18 21 -1.</_>
        <_>
          17 25 6 7 9.</_></rects>
      <tilted>0</tilted></_>
    <_>
      <rects>
        <_>
          12 2 16 36 -1.</_>
        <_>
          12 11 16 18 2.</_></rects>
      <tilted>0</tilted></_>
    <_>
      <rects>
        <_>
          12 15 16 10 -1.</_>
        <_>
          16 15 8 10 2.</_></rects>
      <tilted>0</tilted></_>
    <_>
      <rects>
        <_>
          13 16 4 16 -1.</_>
        <_>
          13 16 2 8 2.</_>
        <_>
          15 24 2 8 2.</_></rects>
      <tilted>0</tilted></_>
    <_>
      <rects>
        <_>
          14 2 16 13 -1.</_>
        <_>
          18 6 8 13 2.</_></rects>
      <tilted>1</tilted></_>
    <_>
      <rects>
        <_>
          14 14 3 12 -1.</_>
        <_>
          15 18 1 4 9.</_></rects>
      <tilted>0</tilted></_>
    <_>
      <rects>
        <_>
          14 14 12 3 -1.</_>
        <_>
          18 15 4 1 9.</_></rects>
      <tilted>0</tilted></_>
    <_>
      <rects>
        <_>
          14 14 15 24 -1.</_>
        <_>
          14 22 15 8 3.</_></rects>
      <tilted>0</tilted></_>
    <_>
      <rects>
        <_>
          14 23 12 3 -1.</_>
        <_>
          18 24 4 1 9.</_></rects>
      <tilted>0</tilted></_>
    <_>
      <rects>
        <_>
          15 11 24 15 -1.</_>
        <_>
          23 11 8 15 3.</_></rects>
      <tilted>0</tilted></_>
    <_>
      <rects>
        <_>
          15 12 10 16 -1.</_>
        <_>
          15 16 10 8 2.</_></rects>
      <tilted>0</tilted></_>
    <_>
      <rects>
        <_>
          16 16 1 4 -1.</_>
        <_>
          16 18 1 2 2.</_></rects>
      <tilted>0</tilted></_>
    <_>
      <rects>
        <_>
          16 16 8 8 -1.</_>
        <_>
          16 18 8 4 2.</_></rects>
      <tilted>0</tilted></_>
    <_>
      <rects>
        <_>
          17 12 12 6 -1.</_>
        <_>
          20 15 6 6 2.</_></rects>
      <tilted>1</tilted></_>
    <_>
      <rects>
        <_>
          17 14 6 3 -1.</_>
        <_>
          17 15 6 1 3.</_></rects>
      <tilted>0</tilted></_>
    <_>
      <rects>
        <_>
          17 17 6 6 -1.</_>
        <_>
          19 19 2 2 9.</_></rects>
      <tilted>0</tilted></_>
    <_>
      <rects>
        <_>
          17 23 2 1 -1.</_>
        <_>
          18 23 1 1 2.</_></rects>
      <tilted>0</tilted></_>
    <_>
      <rects>
        <_>
          18 18 3 3 -1.</_>
        <_>
          19 19 1 1 9.</_></rects>
      <tilted>0</tilted></_>
    <_>
      <rects>
        <_>
          19 14 8 4 -1.</_>
        <_>
          21 16 4 4 2.</_></rects>
      <tilted>1</tilted></_>
    <_>
      <rects>
        <_>
          19 16 9 8 -1.</_>
        <_>
          22 16 3 8 3.</_></rects>
      <tilted>0</tilted></_>
    <_>
      <rects>
        <_>
          20 16 4 1 -1.</_>
        <_>
          22 16 2 1 2.</_></rects>
      <tilted>0</tilted></_>
    <_>
      <rects>
        <_>
          22 14 5 8 -1.</_>
        <_>
          20 16 5 4 2.</_></rects>
      <tilted>1</tilted></_>
    <_>
      <rects>
        <_>
          23 11 15 10 -1.</_>
        <_>
          28 16 5 10 3.</_></rects>
      <tilted>1</tilted></_>
    <_>
      <rects>
        <_>
          23 14 3 12 -1.</_>
        <_>
          24 18 1 4 9.</_></rects>
      <tilted>0</tilted></_>
    <_>
      <rects>
        <_>
          23 17 3 6 -1.</_>
        <_>
          24 17 1 6 3.</_></rects>
      <tilted>0</tilted></_>
    <_>
      <rects>
        <_>
          23 20 1 4 -1.</_>
        <_>
          23 22 1 2 2.</_></rects>
      <tilted>0</tilted></_>
    <_>
      <rects>
        <_>
          24 18 2 1 -1.</_>
        <_>
          24 18 1 1 2.</_></rects>
      <tilted>1</tilted></_>
    <_>
      <rects>
        <_>
          27 2 10 15 -1.</_>
        <_>
          22 7 10 5 3.</_></rects>
      <tilted>1</tilted></_>
    <_>
      <rects>
        <_>
          27 13 1 4 -1.</_>
        <_>
          26 14 1 2 2.</_></rects>
      <tilted>1</tilted></_>
    <_>
      <rects>
        <_>
          38 0 1 40 -1.</_>
        <_>
          38 10 1 20 2.</_></rects>
      <tilted>0</tilted></_></features></cascade>
</opencv_storage>
