<?xml version="1.0"?>
<opencv_storage>
<stage5>
  <maxWeakCount>5</maxWeakCount>
  <stageThreshold>-4.3933025002479553e-01</stageThreshold>
  <weakClassifiers>
    <_>
      <internalNodes>
        0 -1 1796085 -2.8729274868965149e-02</internalNodes>
      <leafValues>
        6.3767498731613159e-01 -8.7751531600952148e-01</leafValues></_>
    <_>
      <internalNodes>
        0 -1 1404426 -1.1585773900151253e-03</internalNodes>
      <leafValues>
        5.7522708177566528e-01 -8.0512219667434692e-01</leafValues></_>
    <_>
      <internalNodes>
        0 -1 490178 -2.8604980558156967e-02</internalNodes>
      <leafValues>
        5.2794593572616577e-01 -7.6134985685348511e-01</leafValues></_>
    <_>
      <internalNodes>
        0 -1 1630879 -1.3670441508293152e-01</internalNodes>
      <leafValues>
        3.8592615723609924e-01 -9.4031834602355957e-01</leafValues></_>
    <_>
      <internalNodes>
        0 -1 724531 -9.1081224381923676e-03</internalNodes>
      <leafValues>
        -9.7144365310668945e-01 3.2943513989448547e-01</leafValues></_></weakClassifiers></stage5>
</opencv_storage>
