<?xml version="1.0"?>
<opencv_storage>
<stage3>
  <maxWeakCount>5</maxWeakCount>
  <stageThreshold>-6.2970238924026489e-01</stageThreshold>
  <weakClassifiers>
    <_>
      <internalNodes>
        0 -1 4345344 -2.3268245160579681e-02</internalNodes>
      <leafValues>
        5.5085241794586182e-01 -9.5466524362564087e-01</leafValues></_>
    <_>
      <internalNodes>
        0 -1 3535299 -3.0871182680130005e-02</internalNodes>
      <leafValues>
        4.6114239096641541e-01 -9.7080975770950317e-01</leafValues></_>
    <_>
      <internalNodes>
        0 -1 2335219 1.2461341917514801e-02</internalNodes>
      <leafValues>
        -9.0564990043640137e-01 4.1815176606178284e-01</leafValues></_>
    <_>
      <internalNodes>
        0 -1 2842612 -3.3203070051968098e-04</internalNodes>
      <leafValues>
        3.8211447000503540e-01 -9.1349184513092041e-01</leafValues></_>
    <_>
      <internalNodes>
        0 -1 3184449 1.8345749005675316e-02</internalNodes>
      <leafValues>
        -9.7491568326950073e-01 3.5916054248809814e-01</leafValues></_></weakClassifiers></stage3>
</opencv_storage>
