<?xml version="1.0"?>
<opencv_storage>
<stage2>
  <maxWeakCount>10</maxWeakCount>
  <stageThreshold>-1.4480574131011963e+00</stageThreshold>
  <weakClassifiers>
    <_>
      <internalNodes>
        0 -1 1706036 3.2701939344406128e-03</internalNodes>
      <leafValues>
        -7.5841718912124634e-01 5.5922603607177734e-01</leafValues></_>
    <_>
      <internalNodes>
        0 -1 1404427 -1.1795291211456060e-03</internalNodes>
      <leafValues>
        6.9851368665695190e-01 -5.9504288434982300e-01</leafValues></_>
    <_>
      <internalNodes>
        0 -1 1006316 -7.4124620296061039e-03</internalNodes>
      <leafValues>
        5.6925517320632935e-01 -6.7129665613174438e-01</leafValues></_>
    <_>
      <internalNodes>
        0 -1 1990483 2.1434731781482697e-02</internalNodes>
      <leafValues>
        -8.0519574880599976e-01 4.4987356662750244e-01</leafValues></_>
    <_>
      <internalNodes>
        0 -1 1342761 1.8770097085507587e-05</internalNodes>
      <leafValues>
        3.4694936871528625e-01 -9.9284887313842773e-01</leafValues></_>
    <_>
      <internalNodes>
        0 -1 1342761 -3.2053074392024428e-05</internalNodes>
      <leafValues>
        -1. 2.9786148667335510e-01</leafValues></_>
    <_>
      <internalNodes>
        0 -1 1404597 1.2250260915607214e-03</internalNodes>
      <leafValues>
        -6.3853532075881958e-01 4.6235826611518860e-01</leafValues></_>
    <_>
      <internalNodes>
        0 -1 1442028 -2.8030755929648876e-03</internalNodes>
      <leafValues>
        7.5595355033874512e-01 -5.1981669664382935e-01</leafValues></_>
    <_>
      <internalNodes>
        0 -1 811527 -2.7828849852085114e-05</internalNodes>
      <leafValues>
        -8.9293992519378662e-01 4.7396063804626465e-01</leafValues></_>
    <_>
      <internalNodes>
        0 -1 811527 1.8053919120575301e-05</internalNodes>
      <leafValues>
        3.2058203220367432e-01 -9.5162856578826904e-01</leafValues></_></weakClassifiers></stage2>
</opencv_storage>
