<?xml version="1.0"?>
<opencv_storage>
<stage1>
  <maxWeakCount>9</maxWeakCount>
  <stageThreshold>-1.6380683183670044e+00</stageThreshold>
  <weakClassifiers>
    <_>
      <internalNodes>
        0 -1 4454328 -2.4357911199331284e-02</internalNodes>
      <leafValues>
        5.1795333623886108e-01 -7.7705627679824829e-01</leafValues></_>
    <_>
      <internalNodes>
        0 -1 2516663 1.1652827262878418e-02</internalNodes>
      <leafValues>
        -6.9784271717071533e-01 4.0575650334358215e-01</leafValues></_>
    <_>
      <internalNodes>
        0 -1 3823506 7.3799733072519302e-03</internalNodes>
      <leafValues>
        2.1647012233734131e-01 -9.4289296865463257e-01</leafValues></_>
    <_>
      <internalNodes>
        0 -1 2000493 -3.8569919764995575e-02</internalNodes>
      <leafValues>
        -9.0409141778945923e-01 2.7350285649299622e-01</leafValues></_>
    <_>
      <internalNodes>
        0 -1 3283327 2.0225020125508308e-03</internalNodes>
      <leafValues>
        2.0988985896110535e-01 -8.3995020389556885e-01</leafValues></_>
    <_>
      <internalNodes>
        0 -1 3095242 6.1209569685161114e-04</internalNodes>
      <leafValues>
        -3.7571841478347778e-01 6.8913346529006958e-01</leafValues></_>
    <_>
      <internalNodes>
        0 -1 3659464 -1.9291600910946727e-03</internalNodes>
      <leafValues>
        8.1203067302703857e-01 -2.6826885342597961e-01</leafValues></_>
    <_>
      <internalNodes>
        0 -1 2264252 2.0031582564115524e-02</internalNodes>
      <leafValues>
        2.8973931074142456e-01 -9.0791296958923340e-01</leafValues></_>
    <_>
      <internalNodes>
        0 -1 3220781 1.5573806595057249e-03</internalNodes>
      <leafValues>
        -3.7228804826736450e-01 6.8886798620223999e-01</leafValues></_></weakClassifiers></stage1>
</opencv_storage>
