<?xml version="1.0"?>
<opencv_storage>
<stage2>
  <maxWeakCount>11</maxWeakCount>
  <stageThreshold>-1.6771404743194580e+00</stageThreshold>
  <weakClassifiers>
    <_>
      <internalNodes>
        0 -1 4259760 -3.0570227652788162e-02</internalNodes>
      <leafValues>
        4.7330316901206970e-01 -7.3333334922790527e-01</leafValues></_>
    <_>
      <internalNodes>
        0 -1 2485833 -2.1899443119764328e-02</internalNodes>
      <leafValues>
        4.3096810579299927e-01 -6.5745818614959717e-01</leafValues></_>
    <_>
      <internalNodes>
        0 -1 1154593 2.9540942050516605e-03</internalNodes>
      <leafValues>
        -6.9678258895874023e-01 3.0543541908264160e-01</leafValues></_>
    <_>
      <internalNodes>
        0 -1 2146505 -3.5845895763486624e-04</internalNodes>
      <leafValues>
        3.0976766347885132e-01 -7.3330354690551758e-01</leafValues></_>
    <_>
      <internalNodes>
        0 -1 3550359 8.6652138270437717e-04</internalNodes>
      <leafValues>
        -4.3033674359321594e-01 5.7101076841354370e-01</leafValues></_>
    <_>
      <internalNodes>
        0 -1 2942425 -3.5587181337177753e-03</internalNodes>
      <leafValues>
        -7.8508341312408447e-01 3.0082422494888306e-01</leafValues></_>
    <_>
      <internalNodes>
        0 -1 3668458 7.2161946445703506e-04</internalNodes>
      <leafValues>
        -5.3507226705551147e-01 4.4836619496345520e-01</leafValues></_>
    <_>
      <internalNodes>
        0 -1 2847790 6.8521872162818909e-04</internalNodes>
      <leafValues>
        -2.1938717365264893e-01 8.8832110166549683e-01</leafValues></_>
    <_>
      <internalNodes>
        0 -1 3204209 7.9313962487503886e-04</internalNodes>
      <leafValues>
        -2.7047064900398254e-01 7.0430696010589600e-01</leafValues></_>
    <_>
      <internalNodes>
        0 -1 3964807 8.8125461479648948e-04</internalNodes>
      <leafValues>
        -3.6051291227340698e-01 5.6988978385925293e-01</leafValues></_>
    <_>
      <internalNodes>
        0 -1 4549907 1.4282921329140663e-03</internalNodes>
      <leafValues>
        -2.8804916143417358e-01 6.8256759643554688e-01</leafValues></_></weakClassifiers></stage2>
</opencv_storage>
