<?xml version="1.0"?>
<opencv_storage>
<stage6>
  <maxWeakCount>7</maxWeakCount>
  <stageThreshold>-8.8287127017974854e-01</stageThreshold>
  <weakClassifiers>
    <_>
      <internalNodes>
        0 -1 437732 -6.3846679404377937e-03</internalNodes>
      <leafValues>
        4.9341979622840881e-01 -9.0324413776397705e-01</leafValues></_>
    <_>
      <internalNodes>
        0 -1 544028 2.6798015460371971e-03</internalNodes>
      <leafValues>
        -3.2905241847038269e-01 8.5550266504287720e-01</leafValues></_>
    <_>
      <internalNodes>
        0 -1 241185 -1.8651233986020088e-02</internalNodes>
      <leafValues>
        3.3274215459823608e-01 -9.0637069940567017e-01</leafValues></_>
    <_>
      <internalNodes>
        0 -1 382113 8.0293565988540649e-03</internalNodes>
      <leafValues>
        -8.8446658849716187e-01 2.9110276699066162e-01</leafValues></_>
    <_>
      <internalNodes>
        0 -1 412795 -1.0565923003014177e-04</internalNodes>
      <leafValues>
        2.5957104563713074e-01 -8.4145790338516235e-01</leafValues></_>
    <_>
      <internalNodes>
        0 -1 335729 2.8397415298968554e-03</internalNodes>
      <leafValues>
        -3.6132165789604187e-01 8.4258532524108887e-01</leafValues></_>
    <_>
      <internalNodes>
        0 -1 507647 2.7960170991718769e-03</internalNodes>
      <leafValues>
        -4.3309810757637024e-01 7.3457670211791992e-01</leafValues></_></weakClassifiers></stage6>
</opencv_storage>
