<?xml version="1.0"?>
<opencv_storage>
<stage8>
  <maxWeakCount>9</maxWeakCount>
  <stageThreshold>-7.3251754045486450e-01</stageThreshold>
  <weakClassifiers>
    <_>
      <internalNodes>
        0 -1 332430 1.8414143472909927e-02</internalNodes>
      <leafValues>
        -4.8116505146026611e-01 5.0598871707916260e-01</leafValues></_>
    <_>
      <internalNodes>
        0 -1 260881 -9.4320001080632210e-03</internalNodes>
      <leafValues>
        2.5809612870216370e-01 -8.9269006252288818e-01</leafValues></_>
    <_>
      <internalNodes>
        0 -1 360663 -3.1416263431310654e-02</internalNodes>
      <leafValues>
        2.2922785580158234e-01 -8.8519632816314697e-01</leafValues></_>
    <_>
      <internalNodes>
        0 -1 331139 -1.1155448853969574e-02</internalNodes>
      <leafValues>
        6.6620707511901855e-01 -3.5239067673683167e-01</leafValues></_>
    <_>
      <internalNodes>
        0 -1 482300 2.7506467886269093e-03</internalNodes>
      <leafValues>
        -3.7448501586914062e-01 6.7543721199035645e-01</leafValues></_>
    <_>
      <internalNodes>
        0 -1 54050 -2.8490271419286728e-02</internalNodes>
      <leafValues>
        2.6791879534721375e-01 -8.8304054737091064e-01</leafValues></_>
    <_>
      <internalNodes>
        0 -1 366859 5.7488405145704746e-03</internalNodes>
      <leafValues>
        -4.2317065596580505e-01 5.8467239141464233e-01</leafValues></_>
    <_>
      <internalNodes>
        0 -1 440183 -2.2833705879747868e-03</internalNodes>
      <leafValues>
        7.9258823394775391e-01 -2.9997181892395020e-01</leafValues></_>
    <_>
      <internalNodes>
        0 -1 440183 2.0078232046216726e-03</internalNodes>
      <leafValues>
        -3.0496126413345337e-01 8.3692693710327148e-01</leafValues></_></weakClassifiers></stage8>
</opencv_storage>
