<?xml version="1.0"?>
<opencv_storage>
<cascade>
  <stageType>BOOST</stageType>
  <featureType>HAAR</featureType>
  <height>50</height>
  <width>50</width>
  <stageParams>
    <boostType>GAB</boostType>
    <minHitRate>8.9999997615814209e-01</minHitRate>
    <maxFalseAlarm>3.0000001192092896e-01</maxFalseAlarm>
    <weightTrimRate>9.4999999999999996e-01</weightTrimRate>
    <maxDepth>1</maxDepth>
    <maxWeakCount>100</maxWeakCount></stageParams>
  <featureParams>
    <maxCatCount>0</maxCatCount>
    <featSize>1</featSize>
    <mode>ALL</mode></featureParams>
  <stageNum>8</stageNum>
  <stages>
    <!-- stage 0 -->
    <_>
      <maxWeakCount>1</maxWeakCount>
      <stageThreshold>7.8817880153656006e-01</stageThreshold>
      <weakClassifiers>
        <_>
          <internalNodes>
            0 -1 0 1.6555981710553169e-02</internalNodes>
          <leafValues>
            -9.8500186204910278e-01 7.8817880153656006e-01</leafValues></_></weakClassifiers></_>
    <!-- stage 1 -->
    <_>
      <maxWeakCount>1</maxWeakCount>
      <stageThreshold>7.9151517152786255e-01</stageThreshold>
      <weakClassifiers>
        <_>
          <internalNodes>
            0 -1 1 -4.5409619808197021e-02</internalNodes>
          <leafValues>
            7.9151517152786255e-01 -9.6740740537643433e-01</leafValues></_></weakClassifiers></_>
    <!-- stage 2 -->
    <_>
      <maxWeakCount>1</maxWeakCount>
      <stageThreshold>7.7481031417846680e-01</stageThreshold>
      <weakClassifiers>
        <_>
          <internalNodes>
            0 -1 4 -4.6280633796413895e-06</internalNodes>
          <leafValues>
            7.7481031417846680e-01 -9.4380778074264526e-01</leafValues></_></weakClassifiers></_>
    <!-- stage 3 -->
    <_>
      <maxWeakCount>1</maxWeakCount>
      <stageThreshold>7.2151160240173340e-01</stageThreshold>
      <weakClassifiers>
        <_>
          <internalNodes>
            0 -1 2 1.6596861183643341e-02</internalNodes>
          <leafValues>
            -9.6953123807907104e-01 7.2151160240173340e-01</leafValues></_></weakClassifiers></_>
    <!-- stage 4 -->
    <_>
      <maxWeakCount>1</maxWeakCount>
      <stageThreshold>5.9446251392364502e-01</stageThreshold>
      <weakClassifiers>
        <_>
          <internalNodes>
            0 -1 6 4.3507706141099334e-04</internalNodes>
          <leafValues>
            5.9446251392364502e-01 -9.4559586048126221e-01</leafValues></_></weakClassifiers></_>
    <!-- stage 5 -->
    <_>
      <maxWeakCount>1</maxWeakCount>
      <stageThreshold>5.6742030382156372e-01</stageThreshold>
      <weakClassifiers>
        <_>
          <internalNodes>
            0 -1 10 -7.1602687239646912e-02</internalNodes>
          <leafValues>
            5.6742030382156372e-01 -8.9437526464462280e-01</leafValues></_></weakClassifiers></_>
    <!-- stage 6 -->
    <_>
      <maxWeakCount>3</maxWeakCount>
      <stageThreshold>6.4973014593124390e-01</stageThreshold>
      <weakClassifiers>
        <_>
          <internalNodes>
            0 -1 7 -7.0215458981692791e-04</internalNodes>
          <leafValues>
            8.3475530147552490e-01 -4.9271136522293091e-01</leafValues></_>
        <_>
          <internalNodes>
            0 -1 3 4.8430422320961952e-03</internalNodes>
          <leafValues>
            -7.6780730485916138e-01 5.5214673280715942e-01</leafValues></_>
        <_>
          <internalNodes>
            0 -1 9 1.0032900609076023e-03</internalNodes>
          <leafValues>
            -6.1363053321838379e-01 5.9029471874237061e-01</leafValues></_></weakClassifiers></_>
    <!-- stage 7 -->
    <_>
      <maxWeakCount>2</maxWeakCount>
      <stageThreshold>6.8064951896667480e-01</stageThreshold>
      <weakClassifiers>
        <_>
          <internalNodes>
            0 -1 5 -1.9935774616897106e-05</internalNodes>
          <leafValues>
            -8.4615385532379150e-01 3.6842104792594910e-01</leafValues></_>
        <_>
          <internalNodes>
            0 -1 8 -2.7683892767527141e-05</internalNodes>
          <leafValues>
            -8.6826002597808838e-01 3.1222850084304810e-01</leafValues></_></weakClassifiers></_></stages>
  <features>
    <_>
      <rects>
        <_>
          15 19 20 12 -1.</_>
        <_>
          20 19 10 12 2.</_></rects>
      <tilted>0</tilted></_>
    <_>
      <rects>
        <_>
          16 2 32 13 -1.</_>
        <_>
          24 10 16 13 2.</_></rects>
      <tilted>1</tilted></_>
    <_>
      <rects>
        <_>
          19 15 13 20 -1.</_>
        <_>
          19 20 13 10 2.</_></rects>
      <tilted>0</tilted></_>
    <_>
      <rects>
        <_>
          19 18 12 3 -1.</_>
        <_>
          23 19 4 1 9.</_></rects>
      <tilted>0</tilted></_>
    <_>
      <rects>
        <_>
          19 21 12 8 -1.</_>
        <_>
          22 21 6 8 2.</_></rects>
      <tilted>0</tilted></_>
    <_>
      <rects>
        <_>
          20 25 2 1 -1.</_>
        <_>
          20 25 1 1 2.</_></rects>
      <tilted>1</tilted></_>
    <_>
      <rects>
        <_>
          21 19 9 12 -1.</_>
        <_>
          21 22 9 6 2.</_></rects>
      <tilted>0</tilted></_>
    <_>
      <rects>
        <_>
          23 25 4 1 -1.</_>
        <_>
          24 25 2 1 2.</_></rects>
      <tilted>0</tilted></_>
    <_>
      <rects>
        <_>
          25 20 4 1 -1.</_>
        <_>
          27 20 2 1 2.</_></rects>
      <tilted>0</tilted></_>
    <_>
      <rects>
        <_>
          29 23 4 4 -1.</_>
        <_>
          30 23 2 4 2.</_></rects>
      <tilted>0</tilted></_>
    <_>
      <rects>
        <_>
          37 1 13 36 -1.</_>
        <_>
          28 10 13 18 2.</_></rects>
      <tilted>1</tilted></_></features></cascade>
</opencv_storage>
