<?xml version="1.0"?>
<opencv_storage>
<stage1>
  <maxWeakCount>10</maxWeakCount>
  <stageThreshold>-1.1576323509216309e+00</stageThreshold>
  <weakClassifiers>
    <_>
      <internalNodes>
        0 -1 202434 7.4833594262599945e-03</internalNodes>
      <leafValues>
        -6.0930603742599487e-01 5.5890834331512451e-01</leafValues></_>
    <_>
      <internalNodes>
        0 -1 924395 6.6214697435498238e-03</internalNodes>
      <leafValues>
        -6.6827124357223511e-01 4.4871237874031067e-01</leafValues></_>
    <_>
      <internalNodes>
        0 -1 1346108 7.9328287392854691e-04</internalNodes>
      <leafValues>
        -4.6731141209602356e-01 6.6064864397048950e-01</leafValues></_>
    <_>
      <internalNodes>
        0 -1 969335 5.0696190446615219e-03</internalNodes>
      <leafValues>
        -6.4617002010345459e-01 4.3241274356842041e-01</leafValues></_>
    <_>
      <internalNodes>
        0 -1 1287661 -4.9700848758220673e-03</internalNodes>
      <leafValues>
        6.6888785362243652e-01 -4.5246621966362000e-01</leafValues></_>
    <_>
      <internalNodes>
        0 -1 1401389 -9.2625676188617945e-04</internalNodes>
      <leafValues>
        6.6779130697250366e-01 -3.9675614237785339e-01</leafValues></_>
    <_>
      <internalNodes>
        0 -1 1855223 2.6803484652191401e-03</internalNodes>
      <leafValues>
        -3.5714399814605713e-01 7.3880165815353394e-01</leafValues></_>
    <_>
      <internalNodes>
        0 -1 865240 -5.6092604994773865e-02</internalNodes>
      <leafValues>
        -8.7347245216369629e-01 3.2871294021606445e-01</leafValues></_>
    <_>
      <internalNodes>
        0 -1 1285939 -1.4242478646337986e-03</internalNodes>
      <leafValues>
        9.0823972225189209e-01 -3.2113742828369141e-01</leafValues></_>
    <_>
      <internalNodes>
        0 -1 659050 9.5120072364807129e-03</internalNodes>
      <leafValues>
        3.3151751756668091e-01 -8.4010207653045654e-01</leafValues></_></weakClassifiers></stage1>
</opencv_storage>
