<?xml version="1.0"?>
<opencv_storage>
<stage9>
  <maxWeakCount>18</maxWeakCount>
  <stageThreshold>-1.1748147010803223e+00</stageThreshold>
  <weakClassifiers>
    <_>
      <internalNodes>
        0 -1 851503 1.2282912619411945e-02</internalNodes>
      <leafValues>
        -4.0033641457557678e-01 4.2232799530029297e-01</leafValues></_>
    <_>
      <internalNodes>
        0 -1 1818951 -1.3670858461409807e-03</internalNodes>
      <leafValues>
        7.9389852285385132e-01 -1.4606916904449463e-01</leafValues></_>
    <_>
      <internalNodes>
        0 -1 1920985 1.5388936735689640e-03</internalNodes>
      <leafValues>
        -1.8781125545501709e-01 7.4967569112777710e-01</leafValues></_>
    <_>
      <internalNodes>
        0 -1 1929045 1.6004238277673721e-03</internalNodes>
      <leafValues>
        -1.0901105403900146e-01 7.7682423591613770e-01</leafValues></_>
    <_>
      <internalNodes>
        0 -1 99107 3.0636438168585300e-04</internalNodes>
      <leafValues>
        1.7585776746273041e-01 -7.5110101699829102e-01</leafValues></_>
    <_>
      <internalNodes>
        0 -1 1282595 2.5646667927503586e-03</internalNodes>
      <leafValues>
        -3.0689895153045654e-01 3.9978310465812683e-01</leafValues></_>
    <_>
      <internalNodes>
        0 -1 759276 -1.1965236626565456e-03</internalNodes>
      <leafValues>
        6.7843538522720337e-01 -1.8623089790344238e-01</leafValues></_>
    <_>
      <internalNodes>
        0 -1 2043116 9.2879374278709292e-04</internalNodes>
      <leafValues>
        1.7359383404254913e-01 -7.7405649423599243e-01</leafValues></_>
    <_>
      <internalNodes>
        0 -1 1892357 5.9037590399384499e-03</internalNodes>
      <leafValues>
        -2.6935586333274841e-01 4.4728133082389832e-01</leafValues></_>
    <_>
      <internalNodes>
        0 -1 1927081 1.0866397991776466e-02</internalNodes>
      <leafValues>
        -4.8235350847244263e-01 2.4428318440914154e-01</leafValues></_>
    <_>
      <internalNodes>
        0 -1 2029471 2.1086356136947870e-03</internalNodes>
      <leafValues>
        1.7182035744190216e-01 -7.5091540813446045e-01</leafValues></_>
    <_>
      <internalNodes>
        0 -1 1260843 2.8719184920191765e-03</internalNodes>
      <leafValues>
        -3.2495442032814026e-01 3.8997310400009155e-01</leafValues></_>
    <_>
      <internalNodes>
        0 -1 974686 1.1960049159824848e-03</internalNodes>
      <leafValues>
        -1.9424372911453247e-01 6.3243150711059570e-01</leafValues></_>
    <_>
      <internalNodes>
        0 -1 444138 1.5671862056478858e-03</internalNodes>
      <leafValues>
        -1.5630958974361420e-01 7.0736414194107056e-01</leafValues></_>
    <_>
      <internalNodes>
        0 -1 1901202 1.3660573167726398e-03</internalNodes>
      <leafValues>
        -1.6977283358573914e-01 6.8008697032928467e-01</leafValues></_>
    <_>
      <internalNodes>
        0 -1 80455 1.0801025200635195e-04</internalNodes>
      <leafValues>
        1.7915093898773193e-01 -7.9350906610488892e-01</leafValues></_>
    <_>
      <internalNodes>
        0 -1 792850 1.1217547580599785e-03</internalNodes>
      <leafValues>
        -3.6340141296386719e-01 3.3786317706108093e-01</leafValues></_>
    <_>
      <internalNodes>
        0 -1 80455 -1.1931089102290571e-04</internalNodes>
      <leafValues>
        -8.4136748313903809e-01 1.6325831413269043e-01</leafValues></_></weakClassifiers></stage9>
</opencv_storage>
