<?xml version="1.0"?>
<opencv_storage>
<stage8>
  <maxWeakCount>18</maxWeakCount>
  <stageThreshold>-1.4103283882141113e+00</stageThreshold>
  <weakClassifiers>
    <_>
      <internalNodes>
        0 -1 1802946 -6.6114687360823154e-03</internalNodes>
      <leafValues>
        3.8936811685562134e-01 -4.6699750423431396e-01</leafValues></_>
    <_>
      <internalNodes>
        0 -1 873287 4.0806200355291367e-02</internalNodes>
      <leafValues>
        1.7365497350692749e-01 -7.8351014852523804e-01</leafValues></_>
    <_>
      <internalNodes>
        0 -1 1934564 1.6142521053552628e-03</internalNodes>
      <leafValues>
        1.8421901762485504e-01 -7.0793622732162476e-01</leafValues></_>
    <_>
      <internalNodes>
        0 -1 145496 -2.7661486528813839e-03</internalNodes>
      <leafValues>
        2.3171469569206238e-01 -5.1082265377044678e-01</leafValues></_>
    <_>
      <internalNodes>
        0 -1 4785 1.7590348143130541e-03</internalNodes>
      <leafValues>
        1.5778364241123199e-01 -6.9709080457687378e-01</leafValues></_>
    <_>
      <internalNodes>
        0 -1 1589144 2.6896174997091293e-02</internalNodes>
      <leafValues>
        1.5365932881832123e-01 -7.9049873352050781e-01</leafValues></_>
    <_>
      <internalNodes>
        0 -1 1193702 -1.6132701188325882e-02</internalNodes>
      <leafValues>
        -7.4869012832641602e-01 1.4389365911483765e-01</leafValues></_>
    <_>
      <internalNodes>
        0 -1 88879 -3.7797418190166354e-04</internalNodes>
      <leafValues>
        -6.4258939027786255e-01 1.5114094316959381e-01</leafValues></_>
    <_>
      <internalNodes>
        0 -1 798564 1.4960137195885181e-03</internalNodes>
      <leafValues>
        -1.6338093578815460e-01 7.8690832853317261e-01</leafValues></_>
    <_>
      <internalNodes>
        0 -1 1378363 -5.2758603123947978e-04</internalNodes>
      <leafValues>
        2.2233064472675323e-01 -6.1210894584655762e-01</leafValues></_>
    <_>
      <internalNodes>
        0 -1 1457910 3.0675479210913181e-03</internalNodes>
      <leafValues>
        -2.6670932769775391e-01 4.6614691615104675e-01</leafValues></_>
    <_>
      <internalNodes>
        0 -1 1839531 1.2573393760249019e-03</internalNodes>
      <leafValues>
        1.6927769780158997e-01 -7.5896537303924561e-01</leafValues></_>
    <_>
      <internalNodes>
        0 -1 540943 4.4044498354196548e-03</internalNodes>
      <leafValues>
        -4.7859364748001099e-01 2.5773438811302185e-01</leafValues></_>
    <_>
      <internalNodes>
        0 -1 1869598 1.5597410965710878e-03</internalNodes>
      <leafValues>
        -1.7468252778053284e-01 7.3581534624099731e-01</leafValues></_>
    <_>
      <internalNodes>
        0 -1 1903812 -5.0822214689105749e-04</internalNodes>
      <leafValues>
        -7.8713500499725342e-01 1.9758863747119904e-01</leafValues></_>
    <_>
      <internalNodes>
        0 -1 534638 1.5471422811970115e-03</internalNodes>
      <leafValues>
        -2.2656506299972534e-01 7.4346476793289185e-01</leafValues></_>
    <_>
      <internalNodes>
        0 -1 1217133 1.8359334208071232e-03</internalNodes>
      <leafValues>
        -2.5573736429214478e-01 4.5273029804229736e-01</leafValues></_>
    <_>
      <internalNodes>
        0 -1 1359216 1.2127032969146967e-03</internalNodes>
      <leafValues>
        -3.0758860707283020e-01 4.1405171155929565e-01</leafValues></_></weakClassifiers></stage8>
</opencv_storage>
