<?xml version="1.0"?>
<opencv_storage>
<stage4>
  <maxWeakCount>6</maxWeakCount>
  <stageThreshold>-1.5024498701095581e+00</stageThreshold>
  <weakClassifiers>
    <_>
      <internalNodes>
        0 -1 1786146 -6.2778466381132603e-03</internalNodes>
      <leafValues>
        6.7115521430969238e-01 -7.9216575622558594e-01</leafValues></_>
    <_>
      <internalNodes>
        0 -1 2007094 2.9049878939986229e-02</internalNodes>
      <leafValues>
        -8.3961528539657593e-01 4.9790439009666443e-01</leafValues></_>
    <_>
      <internalNodes>
        0 -1 1087363 -5.8129359968006611e-03</internalNodes>
      <leafValues>
        7.8521853685379028e-01 -5.8664900064468384e-01</leafValues></_>
    <_>
      <internalNodes>
        0 -1 1404597 1.2036736588925123e-03</internalNodes>
      <leafValues>
        -6.1868679523468018e-01 6.5993618965148926e-01</leafValues></_>
    <_>
      <internalNodes>
        0 -1 41960 1.8739584833383560e-02</internalNodes>
      <leafValues>
        -7.7716237306594849e-01 5.0498026609420776e-01</leafValues></_>
    <_>
      <internalNodes>
        0 -1 1466243 1.4245263300836086e-03</internalNodes>
      <leafValues>
        -4.4893631339073181e-01 9.0546828508377075e-01</leafValues></_></weakClassifiers></stage4>
</opencv_storage>
