<?xml version="1.0"?>
<opencv_storage>
<stage11>
  <maxWeakCount>23</maxWeakCount>
  <stageThreshold>-1.5165787935256958e+00</stageThreshold>
  <weakClassifiers>
    <_>
      <internalNodes>
        0 -1 266944 5.3022410720586777e-03</internalNodes>
      <leafValues>
        -4.7904869914054871e-01 3.5269391536712646e-01</leafValues></_>
    <_>
      <internalNodes>
        0 -1 509030 1.1688950471580029e-02</internalNodes>
      <leafValues>
        1.4880868792533875e-01 -7.5717598199844360e-01</leafValues></_>
    <_>
      <internalNodes>
        0 -1 1282787 -8.8991848751902580e-03</internalNodes>
      <leafValues>
        -9.4913816452026367e-01 1.0553852468729019e-01</leafValues></_>
    <_>
      <internalNodes>
        0 -1 1085773 7.1236514486372471e-03</internalNodes>
      <leafValues>
        2.0864039659500122e-01 -6.2919557094573975e-01</leafValues></_>
    <_>
      <internalNodes>
        0 -1 1211697 2.6118515961570665e-05</internalNodes>
      <leafValues>
        -4.9122136831283569e-01 2.0968033373355865e-01</leafValues></_>
    <_>
      <internalNodes>
        0 -1 1739037 9.2738164312322624e-06</internalNodes>
      <leafValues>
        -6.2080150842666626e-01 1.4890013635158539e-01</leafValues></_>
    <_>
      <internalNodes>
        0 -1 545083 1.0490273125469685e-03</internalNodes>
      <leafValues>
        1.4981374144554138e-01 -6.7824035882949829e-01</leafValues></_>
    <_>
      <internalNodes>
        0 -1 612171 -1.2463738676160574e-03</internalNodes>
      <leafValues>
        7.2504937648773193e-01 -1.8162453174591064e-01</leafValues></_>
    <_>
      <internalNodes>
        0 -1 1526268 1.6625258140265942e-03</internalNodes>
      <leafValues>
        -1.4715190231800079e-01 6.8162709474563599e-01</leafValues></_>
    <_>
      <internalNodes>
        0 -1 833835 1.5786346048116684e-03</internalNodes>
      <leafValues>
        -1.4042064547538757e-01 7.8976434469223022e-01</leafValues></_>
    <_>
      <internalNodes>
        0 -1 1457910 1.9971486181020737e-03</internalNodes>
      <leafValues>
        -2.8327360749244690e-01 3.9925047755241394e-01</leafValues></_>
    <_>
      <internalNodes>
        0 -1 2028904 1.1428563157096505e-03</internalNodes>
      <leafValues>
        1.4263583719730377e-01 -7.6163417100906372e-01</leafValues></_>
    <_>
      <internalNodes>
        0 -1 1815830 -1.2583530042320490e-03</internalNodes>
      <leafValues>
        6.9108998775482178e-01 -1.6519793868064880e-01</leafValues></_>
    <_>
      <internalNodes>
        0 -1 1278842 7.4648723239079118e-04</internalNodes>
      <leafValues>
        -3.5653501749038696e-01 3.0641132593154907e-01</leafValues></_>
    <_>
      <internalNodes>
        0 -1 866451 3.1951486598700285e-03</internalNodes>
      <leafValues>
        1.7517209053039551e-01 -6.6328889131546021e-01</leafValues></_>
    <_>
      <internalNodes>
        0 -1 1718865 1.6551029402762651e-03</internalNodes>
      <leafValues>
        -1.6318872570991516e-01 7.0673388242721558e-01</leafValues></_>
    <_>
      <internalNodes>
        0 -1 350147 5.2749486640095711e-03</internalNodes>
      <leafValues>
        -5.6126284599304199e-01 1.9628313183784485e-01</leafValues></_>
    <_>
      <internalNodes>
        0 -1 838447 5.3573176264762878e-03</internalNodes>
      <leafValues>
        1.2145821750164032e-01 -7.7743476629257202e-01</leafValues></_>
    <_>
      <internalNodes>
        0 -1 1818951 -1.8088570795953274e-03</internalNodes>
      <leafValues>
        7.4602657556533813e-01 -1.6262581944465637e-01</leafValues></_>
    <_>
      <internalNodes>
        0 -1 1298884 2.5072465650737286e-03</internalNodes>
      <leafValues>
        -1.3426396250724792e-01 6.8072724342346191e-01</leafValues></_>
    <_>
      <internalNodes>
        0 -1 1315540 1.3746628537774086e-03</internalNodes>
      <leafValues>
        -1.5086190402507782e-01 6.1774140596389771e-01</leafValues></_>
    <_>
      <internalNodes>
        0 -1 2036640 -1.4801190991420299e-04</internalNodes>
      <leafValues>
        -7.7464187145233154e-01 1.6109739243984222e-01</leafValues></_>
    <_>
      <internalNodes>
        0 -1 1890221 -1.1718069436028600e-03</internalNodes>
      <leafValues>
        6.9832992553710938e-01 -1.9137734174728394e-01</leafValues></_></weakClassifiers></stage11>
</opencv_storage>
