<?xml version="1.0"?>
<opencv_storage>
<cascade>
  <stageType>BOOST</stageType>
  <featureType>HAAR</featureType>
  <height>40</height>
  <width>40</width>
  <stageParams>
    <boostType>GAB</boostType>
    <minHitRate>9.9000000953674316e-01</minHitRate>
    <maxFalseAlarm>3.4999999403953552e-01</maxFalseAlarm>
    <weightTrimRate>9.4999999999999996e-01</weightTrimRate>
    <maxDepth>1</maxDepth>
    <maxWeakCount>100</maxWeakCount></stageParams>
  <featureParams>
    <maxCatCount>0</maxCatCount>
    <featSize>1</featSize>
    <mode>ALL</mode></featureParams>
  <stageNum>11</stageNum>
  <stages>
    <!-- stage 0 -->
    <_>
      <maxWeakCount>5</maxWeakCount>
      <stageThreshold>-5.7130426168441772e-01</stageThreshold>
      <weakClassifiers>
        <_>
          <internalNodes>
            0 -1 77 -9.2120096087455750e-03</internalNodes>
          <leafValues>
            6.7841881513595581e-01 -7.4020320177078247e-01</leafValues></_>
        <_>
          <internalNodes>
            0 -1 32 8.7500717490911484e-03</internalNodes>
          <leafValues>
            -6.4936530590057373e-01 5.7611787319183350e-01</leafValues></_>
        <_>
          <internalNodes>
            0 -1 65 -9.2497863806784153e-04</internalNodes>
          <leafValues>
            8.1551301479339600e-01 -4.2102095484733582e-01</leafValues></_>
        <_>
          <internalNodes>
            0 -1 61 -9.7125308820977807e-04</internalNodes>
          <leafValues>
            7.4443930387496948e-01 -4.2930895090103149e-01</leafValues></_>
        <_>
          <internalNodes>
            0 -1 83 9.4358054921030998e-03</internalNodes>
          <leafValues>
            -6.5226811170578003e-01 4.9484586715698242e-01</leafValues></_></weakClassifiers></_>
    <!-- stage 1 -->
    <_>
      <maxWeakCount>6</maxWeakCount>
      <stageThreshold>-1.0630583763122559e+00</stageThreshold>
      <weakClassifiers>
        <_>
          <internalNodes>
            0 -1 9 9.0748220682144165e-03</internalNodes>
          <leafValues>
            -6.8917816877365112e-01 5.4280060529708862e-01</leafValues></_>
        <_>
          <internalNodes>
            0 -1 29 6.2971990555524826e-03</internalNodes>
          <leafValues>
            -7.1520304679870605e-01 4.0902984142303467e-01</leafValues></_>
        <_>
          <internalNodes>
            0 -1 44 -1.1137175606563687e-03</internalNodes>
          <leafValues>
            7.4143487215042114e-01 -4.1143512725830078e-01</leafValues></_>
        <_>
          <internalNodes>
            0 -1 56 -8.5082661826163530e-04</internalNodes>
          <leafValues>
            6.8607687950134277e-01 -3.9489191770553589e-01</leafValues></_>
        <_>
          <internalNodes>
            0 -1 33 5.5544185452163219e-03</internalNodes>
          <leafValues>
            -6.8916654586791992e-01 3.7194925546646118e-01</leafValues></_>
        <_>
          <internalNodes>
            0 -1 42 2.3292757105082273e-03</internalNodes>
          <leafValues>
            -3.6838522553443909e-01 7.4196386337280273e-01</leafValues></_></weakClassifiers></_>
    <!-- stage 2 -->
    <_>
      <maxWeakCount>6</maxWeakCount>
      <stageThreshold>-4.0601295232772827e-01</stageThreshold>
      <weakClassifiers>
        <_>
          <internalNodes>
            0 -1 34 7.3615065775811672e-03</internalNodes>
          <leafValues>
            -6.7122042179107666e-01 4.5864310860633850e-01</leafValues></_>
        <_>
          <internalNodes>
            0 -1 80 9.4543155282735825e-03</internalNodes>
          <leafValues>
            -6.8576049804687500e-01 3.8716974854469299e-01</leafValues></_>
        <_>
          <internalNodes>
            0 -1 20 -5.9376306831836700e-02</internalNodes>
          <leafValues>
            -8.6526995897293091e-01 2.7721297740936279e-01</leafValues></_>
        <_>
          <internalNodes>
            0 -1 67 -7.4828695505857468e-04</internalNodes>
          <leafValues>
            6.8100494146347046e-01 -3.8631117343902588e-01</leafValues></_>
        <_>
          <internalNodes>
            0 -1 15 8.7718162685632706e-03</internalNodes>
          <leafValues>
            2.7211663126945496e-01 -8.1024837493896484e-01</leafValues></_>
        <_>
          <internalNodes>
            0 -1 19 -1.0884264484047890e-03</internalNodes>
          <leafValues>
            9.3304926156997681e-01 -2.6674714684486389e-01</leafValues></_></weakClassifiers></_>
    <!-- stage 3 -->
    <_>
      <maxWeakCount>9</maxWeakCount>
      <stageThreshold>-9.4262111186981201e-01</stageThreshold>
      <weakClassifiers>
        <_>
          <internalNodes>
            0 -1 2 1.1045343428850174e-01</internalNodes>
          <leafValues>
            -4.1041931509971619e-01 5.3460621833801270e-01</leafValues></_>
        <_>
          <internalNodes>
            0 -1 52 -7.9291325528174639e-04</internalNodes>
          <leafValues>
            6.9969582557678223e-01 -2.9487580060958862e-01</leafValues></_>
        <_>
          <internalNodes>
            0 -1 88 1.0448257671669126e-03</internalNodes>
          <leafValues>
            -1.9424454867839813e-01 9.3875074386596680e-01</leafValues></_>
        <_>
          <internalNodes>
            0 -1 51 7.3633465217426419e-04</internalNodes>
          <leafValues>
            -4.2649549245834351e-01 5.0720494985580444e-01</leafValues></_>
        <_>
          <internalNodes>
            0 -1 25 1.0852601844817400e-03</internalNodes>
          <leafValues>
            -2.2897315025329590e-01 9.0438145399093628e-01</leafValues></_>
        <_>
          <internalNodes>
            0 -1 48 -6.3675513956695795e-04</internalNodes>
          <leafValues>
            6.4164614677429199e-01 -3.4024715423583984e-01</leafValues></_>
        <_>
          <internalNodes>
            0 -1 28 -8.6800323333591223e-04</internalNodes>
          <leafValues>
            8.7351012229919434e-01 -2.5903040170669556e-01</leafValues></_>
        <_>
          <internalNodes>
            0 -1 7 1.5193952713161707e-03</internalNodes>
          <leafValues>
            3.4299927949905396e-01 -6.4398694038391113e-01</leafValues></_>
        <_>
          <internalNodes>
            0 -1 89 -8.7691668886691332e-04</internalNodes>
          <leafValues>
            8.3609962463378906e-01 -2.5959622859954834e-01</leafValues></_></weakClassifiers></_>
    <!-- stage 4 -->
    <_>
      <maxWeakCount>9</maxWeakCount>
      <stageThreshold>-1.0025167465209961e+00</stageThreshold>
      <weakClassifiers>
        <_>
          <internalNodes>
            0 -1 27 1.2564302422106266e-02</internalNodes>
          <leafValues>
            -5.7821351289749146e-01 4.3448275327682495e-01</leafValues></_>
        <_>
          <internalNodes>
            0 -1 12 -7.1098294574767351e-04</internalNodes>
          <leafValues>
            -6.7369389533996582e-01 2.7095562219619751e-01</leafValues></_>
        <_>
          <internalNodes>
            0 -1 54 4.2296941392123699e-03</internalNodes>
          <leafValues>
            2.0919097959995270e-01 -7.4818396568298340e-01</leafValues></_>
        <_>
          <internalNodes>
            0 -1 47 -2.7180672623217106e-03</internalNodes>
          <leafValues>
            -6.7632991075515747e-01 3.1724950671195984e-01</leafValues></_>
        <_>
          <internalNodes>
            0 -1 36 1.3465624302625656e-02</internalNodes>
          <leafValues>
            2.1191927790641785e-01 -8.1071501970291138e-01</leafValues></_>
        <_>
          <internalNodes>
            0 -1 84 1.3496025931090117e-03</internalNodes>
          <leafValues>
            -2.3688742518424988e-01 8.9564120769500732e-01</leafValues></_>
        <_>
          <internalNodes>
            0 -1 73 -4.4913822785019875e-03</internalNodes>
          <leafValues>
            -7.2215068340301514e-01 2.5203323364257812e-01</leafValues></_>
        <_>
          <internalNodes>
            0 -1 38 1.2302333489060402e-03</internalNodes>
          <leafValues>
            -2.9004845023155212e-01 7.1460813283920288e-01</leafValues></_>
        <_>
          <internalNodes>
            0 -1 72 1.2201850768178701e-03</internalNodes>
          <leafValues>
            -2.0364893972873688e-01 7.5174790620803833e-01</leafValues></_></weakClassifiers></_>
    <!-- stage 5 -->
    <_>
      <maxWeakCount>8</maxWeakCount>
      <stageThreshold>-9.2474889755249023e-01</stageThreshold>
      <weakClassifiers>
        <_>
          <internalNodes>
            0 -1 31 7.2902766987681389e-03</internalNodes>
          <leafValues>
            -6.3033652305603027e-01 3.8922154903411865e-01</leafValues></_>
        <_>
          <internalNodes>
            0 -1 71 1.1435243301093578e-02</internalNodes>
          <leafValues>
            -6.6114145517349243e-01 2.4914532899856567e-01</leafValues></_>
        <_>
          <internalNodes>
            0 -1 6 -8.9196364569943398e-05</internalNodes>
          <leafValues>
            -7.9463058710098267e-01 2.1722422540187836e-01</leafValues></_>
        <_>
          <internalNodes>
            0 -1 6 6.8885128712281585e-05</internalNodes>
          <leafValues>
            2.1375688910484314e-01 -8.1032860279083252e-01</leafValues></_>
        <_>
          <internalNodes>
            0 -1 78 1.3743308372795582e-03</internalNodes>
          <leafValues>
            -2.4493569135665894e-01 9.0849119424819946e-01</leafValues></_>
        <_>
          <internalNodes>
            0 -1 70 1.1425031116232276e-03</internalNodes>
          <leafValues>
            2.5345161557197571e-01 -6.9363903999328613e-01</leafValues></_>
        <_>
          <internalNodes>
            0 -1 22 -1.1958219110965729e-02</internalNodes>
          <leafValues>
            -9.0346139669418335e-01 1.8514828383922577e-01</leafValues></_>
        <_>
          <internalNodes>
            0 -1 53 1.3406161451712251e-03</internalNodes>
          <leafValues>
            -2.5338888168334961e-01 7.4638378620147705e-01</leafValues></_></weakClassifiers></_>
    <!-- stage 6 -->
    <_>
      <maxWeakCount>9</maxWeakCount>
      <stageThreshold>-1.1004993915557861e+00</stageThreshold>
      <weakClassifiers>
        <_>
          <internalNodes>
            0 -1 63 3.7425082176923752e-02</internalNodes>
          <leafValues>
            -6.0784316062927246e-01 3.9013454318046570e-01</leafValues></_>
        <_>
          <internalNodes>
            0 -1 8 1.7679309472441673e-02</internalNodes>
          <leafValues>
            -5.6342488527297974e-01 2.8602537512779236e-01</leafValues></_>
        <_>
          <internalNodes>
            0 -1 76 -1.2205978855490685e-03</internalNodes>
          <leafValues>
            8.5530877113342285e-01 -2.0882685482501984e-01</leafValues></_>
        <_>
          <internalNodes>
            0 -1 58 3.9137052372097969e-03</internalNodes>
          <leafValues>
            -2.6366466283798218e-01 5.9095573425292969e-01</leafValues></_>
        <_>
          <internalNodes>
            0 -1 50 3.4554980229586363e-03</internalNodes>
          <leafValues>
            -3.3119383454322815e-01 6.7156600952148438e-01</leafValues></_>
        <_>
          <internalNodes>
            0 -1 19 -1.4527689199894667e-03</internalNodes>
          <leafValues>
            8.2893955707550049e-01 -1.6984549164772034e-01</leafValues></_>
        <_>
          <internalNodes>
            0 -1 13 -1.2237035844009370e-04</internalNodes>
          <leafValues>
            -7.9255759716033936e-01 2.3738940060138702e-01</leafValues></_>
        <_>
          <internalNodes>
            0 -1 13 1.1917823576368392e-04</internalNodes>
          <leafValues>
            1.6910947859287262e-01 -8.2142150402069092e-01</leafValues></_>
        <_>
          <internalNodes>
            0 -1 66 3.0371586326509714e-03</internalNodes>
          <leafValues>
            -3.6098447442054749e-01 4.5736101269721985e-01</leafValues></_></weakClassifiers></_>
    <!-- stage 7 -->
    <_>
      <maxWeakCount>12</maxWeakCount>
      <stageThreshold>-7.3179030418395996e-01</stageThreshold>
      <weakClassifiers>
        <_>
          <internalNodes>
            0 -1 82 9.0560102835297585e-03</internalNodes>
          <leafValues>
            -5.4486584663391113e-01 3.8681420683860779e-01</leafValues></_>
        <_>
          <internalNodes>
            0 -1 35 7.8225098550319672e-03</internalNodes>
          <leafValues>
            -6.8816006183624268e-01 2.2207970917224884e-01</leafValues></_>
        <_>
          <internalNodes>
            0 -1 24 5.3626038134098053e-03</internalNodes>
          <leafValues>
            2.0411501824855804e-01 -7.3755609989166260e-01</leafValues></_>
        <_>
          <internalNodes>
            0 -1 39 -1.2959560379385948e-02</internalNodes>
          <leafValues>
            -7.0070248842239380e-01 2.3299181461334229e-01</leafValues></_>
        <_>
          <internalNodes>
            0 -1 10 1.8591680563986301e-03</internalNodes>
          <leafValues>
            1.3482797145843506e-01 -7.5551384687423706e-01</leafValues></_>
        <_>
          <internalNodes>
            0 -1 11 -1.1886378051713109e-03</internalNodes>
          <leafValues>
            -7.0938062667846680e-01 2.1164031326770782e-01</leafValues></_>
        <_>
          <internalNodes>
            0 -1 21 1.2779751559719443e-03</internalNodes>
          <leafValues>
            -2.1837802231311798e-01 8.1287920475006104e-01</leafValues></_>
        <_>
          <internalNodes>
            0 -1 69 2.1464778110384941e-03</internalNodes>
          <leafValues>
            -2.9524537920951843e-01 4.8989704251289368e-01</leafValues></_>
        <_>
          <internalNodes>
            0 -1 45 -1.1785142123699188e-03</internalNodes>
          <leafValues>
            4.6833792328834534e-01 -3.1794661283493042e-01</leafValues></_>
        <_>
          <internalNodes>
            0 -1 16 1.2089828960597515e-03</internalNodes>
          <leafValues>
            -1.8373031914234161e-01 7.4922651052474976e-01</leafValues></_>
        <_>
          <internalNodes>
            0 -1 62 1.7770607955753803e-03</internalNodes>
          <leafValues>
            -5.5446010828018188e-01 2.6732316613197327e-01</leafValues></_>
        <_>
          <internalNodes>
            0 -1 40 -2.6213778182864189e-03</internalNodes>
          <leafValues>
            5.3639990091323853e-01 -2.9719236493110657e-01</leafValues></_></weakClassifiers></_>
    <!-- stage 8 -->
    <_>
      <maxWeakCount>12</maxWeakCount>
      <stageThreshold>-6.7863565683364868e-01</stageThreshold>
      <weakClassifiers>
        <_>
          <internalNodes>
            0 -1 75 -1.9461507908999920e-03</internalNodes>
          <leafValues>
            2.8594312071800232e-01 -6.1620187759399414e-01</leafValues></_>
        <_>
          <internalNodes>
            0 -1 23 -1.2919354485347867e-03</internalNodes>
          <leafValues>
            7.8204774856567383e-01 -1.7506133019924164e-01</leafValues></_>
        <_>
          <internalNodes>
            0 -1 90 1.5802385751157999e-03</internalNodes>
          <leafValues>
            -1.4713992178440094e-01 7.6805812120437622e-01</leafValues></_>
        <_>
          <internalNodes>
            0 -1 59 -1.0673527140170336e-03</internalNodes>
          <leafValues>
            4.3363806605339050e-01 -3.1146290898323059e-01</leafValues></_>
        <_>
          <internalNodes>
            0 -1 49 -9.5615477766841650e-04</internalNodes>
          <leafValues>
            4.6438756585121155e-01 -3.5036560893058777e-01</leafValues></_>
        <_>
          <internalNodes>
            0 -1 4 2.2707856260240078e-03</internalNodes>
          <leafValues>
            2.3938249051570892e-01 -7.8203678131103516e-01</leafValues></_>
        <_>
          <internalNodes>
            0 -1 4 -2.0600270945578814e-03</internalNodes>
          <leafValues>
            -8.1226313114166260e-01 1.8296180665493011e-01</leafValues></_>
        <_>
          <internalNodes>
            0 -1 87 -1.5914507675915956e-03</internalNodes>
          <leafValues>
            8.4398460388183594e-01 -2.4913141131401062e-01</leafValues></_>
        <_>
          <internalNodes>
            0 -1 17 3.7750147748738527e-04</internalNodes>
          <leafValues>
            -5.3624469041824341e-01 3.0027770996093750e-01</leafValues></_>
        <_>
          <internalNodes>
            0 -1 37 1.6566715203225613e-03</internalNodes>
          <leafValues>
            -1.7856110632419586e-01 8.0303561687469482e-01</leafValues></_>
        <_>
          <internalNodes>
            0 -1 94 1.0869300458580256e-03</internalNodes>
          <leafValues>
            2.0018175244331360e-01 -7.7271842956542969e-01</leafValues></_>
        <_>
          <internalNodes>
            0 -1 74 1.5083004254847765e-03</internalNodes>
          <leafValues>
            -2.0974512398242950e-01 7.4250936508178711e-01</leafValues></_></weakClassifiers></_>
    <!-- stage 9 -->
    <_>
      <maxWeakCount>11</maxWeakCount>
      <stageThreshold>-9.1459643840789795e-01</stageThreshold>
      <weakClassifiers>
        <_>
          <internalNodes>
            0 -1 91 -4.8942705616354942e-03</internalNodes>
          <leafValues>
            -6.5163934230804443e-01 2.8872120380401611e-01</leafValues></_>
        <_>
          <internalNodes>
            0 -1 5 -9.5159802585840225e-03</internalNodes>
          <leafValues>
            2.4962197244167328e-01 -5.8051931858062744e-01</leafValues></_>
        <_>
          <internalNodes>
            0 -1 43 -8.7485630065202713e-03</internalNodes>
          <leafValues>
            -9.5632100105285645e-01 1.5646678209304810e-01</leafValues></_>
        <_>
          <internalNodes>
            0 -1 55 -2.3287455551326275e-03</internalNodes>
          <leafValues>
            4.9694150686264038e-01 -3.1799185276031494e-01</leafValues></_>
        <_>
          <internalNodes>
            0 -1 41 -7.9312277957797050e-03</internalNodes>
          <leafValues>
            6.0461187362670898e-01 -2.4951419234275818e-01</leafValues></_>
        <_>
          <internalNodes>
            0 -1 30 1.2788819149136543e-02</internalNodes>
          <leafValues>
            1.8637110292911530e-01 -7.9887932538986206e-01</leafValues></_>
        <_>
          <internalNodes>
            0 -1 26 -4.2706556618213654e-02</internalNodes>
          <leafValues>
            -8.9195269346237183e-01 1.2588423490524292e-01</leafValues></_>
        <_>
          <internalNodes>
            0 -1 85 1.4980868436396122e-03</internalNodes>
          <leafValues>
            1.5121172368526459e-01 -6.9489264488220215e-01</leafValues></_>
        <_>
          <internalNodes>
            0 -1 93 1.6827729996293783e-03</internalNodes>
          <leafValues>
            1.5216538310050964e-01 -7.2744393348693848e-01</leafValues></_>
        <_>
          <internalNodes>
            0 -1 86 1.1269006878137589e-02</internalNodes>
          <leafValues>
            -5.0955468416213989e-01 2.4486999213695526e-01</leafValues></_>
        <_>
          <internalNodes>
            0 -1 46 1.5118748415261507e-03</internalNodes>
          <leafValues>
            -2.0761755108833313e-01 7.0823973417282104e-01</leafValues></_></weakClassifiers></_>
    <!-- stage 10 -->
    <_>
      <maxWeakCount>13</maxWeakCount>
      <stageThreshold>-8.2569742202758789e-01</stageThreshold>
      <weakClassifiers>
        <_>
          <internalNodes>
            0 -1 3 -7.5301807373762131e-03</internalNodes>
          <leafValues>
            2.9719549417495728e-01 -5.3426247835159302e-01</leafValues></_>
        <_>
          <internalNodes>
            0 -1 64 2.6033699978142977e-03</internalNodes>
          <leafValues>
            -2.9669716954231262e-01 4.5413863658905029e-01</leafValues></_>
        <_>
          <internalNodes>
            0 -1 57 -1.1162788141518831e-03</internalNodes>
          <leafValues>
            4.1417038440704346e-01 -3.1103989481925964e-01</leafValues></_>
        <_>
          <internalNodes>
            0 -1 60 -1.3103606179356575e-03</internalNodes>
          <leafValues>
            4.6279501914978027e-01 -3.1973761320114136e-01</leafValues></_>
        <_>
          <internalNodes>
            0 -1 92 -2.3064721608534455e-04</internalNodes>
          <leafValues>
            -7.8317904472351074e-01 1.8488213419914246e-01</leafValues></_>
        <_>
          <internalNodes>
            0 -1 18 -1.3766324846073985e-03</internalNodes>
          <leafValues>
            8.4471917152404785e-01 -1.8290027976036072e-01</leafValues></_>
        <_>
          <internalNodes>
            0 -1 68 1.4053804334253073e-03</internalNodes>
          <leafValues>
            -4.1578277945518494e-01 3.3696097135543823e-01</leafValues></_>
        <_>
          <internalNodes>
            0 -1 92 2.2825691848993301e-04</internalNodes>
          <leafValues>
            1.9200044870376587e-01 -7.7200937271118164e-01</leafValues></_>
        <_>
          <internalNodes>
            0 -1 81 1.8884856253862381e-02</internalNodes>
          <leafValues>
            -4.8503848910331726e-01 2.6286360621452332e-01</leafValues></_>
        <_>
          <internalNodes>
            0 -1 79 1.3582891551777720e-03</internalNodes>
          <leafValues>
            -2.2040724754333496e-01 6.5842044353485107e-01</leafValues></_>
        <_>
          <internalNodes>
            0 -1 0 1.0847300291061401e-03</internalNodes>
          <leafValues>
            2.1936166286468506e-01 -6.7718517780303955e-01</leafValues></_>
        <_>
          <internalNodes>
            0 -1 14 1.3485886156558990e-03</internalNodes>
          <leafValues>
            -2.1946081519126892e-01 6.8591338396072388e-01</leafValues></_>
        <_>
          <internalNodes>
            0 -1 1 -6.1034807004034519e-04</internalNodes>
          <leafValues>
            -6.8086361885070801e-01 2.2282458841800690e-01</leafValues></_></weakClassifiers></_></stages>
  <features>
    <_>
      <rects>
        <_>
          0 3 1 12 -1.</_>
        <_>
          0 7 1 4 3.</_></rects>
      <tilted>0</tilted></_>
    <_>
      <rects>
        <_>
          0 5 1 9 -1.</_>
        <_>
          0 8 1 3 3.</_></rects>
      <tilted>0</tilted></_>
    <_>
      <rects>
        <_>
          0 6 40 28 -1.</_>
        <_>
          10 6 20 28 2.</_></rects>
      <tilted>0</tilted></_>
    <_>
      <rects>
        <_>
          0 14 12 26 -1.</_>
        <_>
          0 14 6 13 2.</_>
        <_>
          6 27 6 13 2.</_></rects>
      <tilted>0</tilted></_>
    <_>
      <rects>
        <_>
          0 28 3 6 -1.</_>
        <_>
          1 30 1 2 9.</_></rects>
      <tilted>0</tilted></_>
    <_>
      <rects>
        <_>
          0 28 26 12 -1.</_>
        <_>
          0 28 13 6 2.</_>
        <_>
          13 34 13 6 2.</_></rects>
      <tilted>0</tilted></_>
    <_>
      <rects>
        <_>
          0 38 2 2 -1.</_>
        <_>
          0 38 1 1 2.</_>
        <_>
          1 39 1 1 2.</_></rects>
      <tilted>0</tilted></_>
    <_>
      <rects>
        <_>
          2 0 10 3 -1.</_>
        <_>
          7 0 5 3 2.</_></rects>
      <tilted>0</tilted></_>
    <_>
      <rects>
        <_>
          2 11 18 18 -1.</_>
        <_>
          8 11 6 18 3.</_></rects>
      <tilted>0</tilted></_>
    <_>
      <rects>
        <_>
          2 13 10 15 -1.</_>
        <_>
          7 13 5 15 2.</_></rects>
      <tilted>0</tilted></_>
    <_>
      <rects>
        <_>
          2 36 8 4 -1.</_>
        <_>
          6 36 4 4 2.</_></rects>
      <tilted>0</tilted></_>
    <_>
      <rects>
        <_>
          2 37 8 3 -1.</_>
        <_>
          6 37 4 3 2.</_></rects>
      <tilted>0</tilted></_>
    <_>
      <rects>
        <_>
          3 0 8 2 -1.</_>
        <_>
          7 0 4 2 2.</_></rects>
      <tilted>0</tilted></_>
    <_>
      <rects>
        <_>
          3 2 1 2 -1.</_>
        <_>
          3 3 1 1 2.</_></rects>
      <tilted>0</tilted></_>
    <_>
      <rects>
        <_>
          5 20 3 1 -1.</_>
        <_>
          6 20 1 1 3.</_></rects>
      <tilted>0</tilted></_>
    <_>
      <rects>
        <_>
          6 13 28 14 -1.</_>
        <_>
          13 13 14 14 2.</_></rects>
      <tilted>0</tilted></_>
    <_>
      <rects>
        <_>
          6 25 3 1 -1.</_>
        <_>
          7 25 1 1 3.</_></rects>
      <tilted>0</tilted></_>
    <_>
      <rects>
        <_>
          8 6 2 20 -1.</_>
        <_>
          8 16 2 10 2.</_></rects>
      <tilted>0</tilted></_>
    <_>
      <rects>
        <_>
          8 11 2 2 -1.</_>
        <_>
          8 11 1 1 2.</_>
        <_>
          9 12 1 1 2.</_></rects>
      <tilted>0</tilted></_>
    <_>
      <rects>
        <_>
          9 27 2 2 -1.</_>
        <_>
          9 27 1 1 2.</_>
        <_>
          10 28 1 1 2.</_></rects>
      <tilted>0</tilted></_>
    <_>
      <rects>
        <_>
          10 8 21 24 -1.</_>
        <_>
          17 16 7 8 9.</_></rects>
      <tilted>0</tilted></_>
    <_>
      <rects>
        <_>
          10 10 2 2 -1.</_>
        <_>
          10 10 1 1 2.</_>
        <_>
          11 11 1 1 2.</_></rects>
      <tilted>0</tilted></_>
    <_>
      <rects>
        <_>
          10 16 20 8 -1.</_>
        <_>
          15 16 10 8 2.</_></rects>
      <tilted>0</tilted></_>
    <_>
      <rects>
        <_>
          10 28 2 2 -1.</_>
        <_>
          10 28 1 1 2.</_>
        <_>
          11 29 1 1 2.</_></rects>
      <tilted>0</tilted></_>
    <_>
      <rects>
        <_>
          11 8 18 24 -1.</_>
        <_>
          11 14 18 12 2.</_></rects>
      <tilted>0</tilted></_>
    <_>
      <rects>
        <_>
          11 9 2 2 -1.</_>
        <_>
          11 9 1 1 2.</_>
        <_>
          12 10 1 1 2.</_></rects>
      <tilted>0</tilted></_>
    <_>
      <rects>
        <_>
          11 11 15 18 -1.</_>
        <_>
          16 17 5 6 9.</_></rects>
      <tilted>0</tilted></_>
    <_>
      <rects>
        <_>
          11 21 10 8 -1.</_>
        <_>
          11 21 10 4 2.</_></rects>
      <tilted>1</tilted></_>
    <_>
      <rects>
        <_>
          11 29 2 2 -1.</_>
        <_>
          11 29 1 1 2.</_>
        <_>
          12 30 1 1 2.</_></rects>
      <tilted>0</tilted></_>
    <_>
      <rects>
        <_>
          12 4 16 12 -1.</_>
        <_>
          12 8 16 4 3.</_></rects>
      <tilted>0</tilted></_>
    <_>
      <rects>
        <_>
          12 6 15 28 -1.</_>
        <_>
          12 13 15 14 2.</_></rects>
      <tilted>0</tilted></_>
    <_>
      <rects>
        <_>
          13 2 14 10 -1.</_>
        <_>
          13 7 14 5 2.</_></rects>
      <tilted>0</tilted></_>
    <_>
      <rects>
        <_>
          13 4 9 9 -1.</_>
        <_>
          16 7 3 9 3.</_></rects>
      <tilted>1</tilted></_>
    <_>
      <rects>
        <_>
          13 17 11 9 -1.</_>
        <_>
          10 20 11 3 3.</_></rects>
      <tilted>1</tilted></_>
    <_>
      <rects>
        <_>
          13 24 14 12 -1.</_>
        <_>
          13 28 14 4 3.</_></rects>
      <tilted>0</tilted></_>
    <_>
      <rects>
        <_>
          14 2 12 12 -1.</_>
        <_>
          18 6 4 12 3.</_></rects>
      <tilted>1</tilted></_>
    <_>
      <rects>
        <_>
          14 14 12 12 -1.</_>
        <_>
          18 18 4 4 9.</_></rects>
      <tilted>0</tilted></_>
    <_>
      <rects>
        <_>
          14 31 1 3 -1.</_>
        <_>
          14 32 1 1 3.</_></rects>
      <tilted>0</tilted></_>
    <_>
      <rects>
        <_>
          15 18 3 1 -1.</_>
        <_>
          16 18 1 1 3.</_></rects>
      <tilted>0</tilted></_>
    <_>
      <rects>
        <_>
          16 5 8 30 -1.</_>
        <_>
          16 15 8 10 3.</_></rects>
      <tilted>0</tilted></_>
    <_>
      <rects>
        <_>
          16 6 8 3 -1.</_>
        <_>
          16 7 8 1 3.</_></rects>
      <tilted>0</tilted></_>
    <_>
      <rects>
        <_>
          16 17 8 6 -1.</_>
        <_>
          18 17 4 6 2.</_></rects>
      <tilted>0</tilted></_>
    <_>
      <rects>
        <_>
          17 17 3 3 -1.</_>
        <_>
          18 18 1 1 9.</_></rects>
      <tilted>0</tilted></_>
    <_>
      <rects>
        <_>
          17 17 6 6 -1.</_>
        <_>
          19 19 2 2 9.</_></rects>
      <tilted>0</tilted></_>
    <_>
      <rects>
        <_>
          17 19 3 2 -1.</_>
        <_>
          18 19 1 2 3.</_></rects>
      <tilted>0</tilted></_>
    <_>
      <rects>
        <_>
          17 19 4 2 -1.</_>
        <_>
          18 19 2 2 2.</_></rects>
      <tilted>0</tilted></_>
    <_>
      <rects>
        <_>
          18 5 1 3 -1.</_>
        <_>
          18 6 1 1 3.</_></rects>
      <tilted>0</tilted></_>
    <_>
      <rects>
        <_>
          18 10 12 7 -1.</_>
        <_>
          21 13 6 7 2.</_></rects>
      <tilted>1</tilted></_>
    <_>
      <rects>
        <_>
          18 18 4 1 -1.</_>
        <_>
          19 18 2 1 2.</_></rects>
      <tilted>0</tilted></_>
    <_>
      <rects>
        <_>
          18 18 1 4 -1.</_>
        <_>
          18 19 1 2 2.</_></rects>
      <tilted>0</tilted></_>
    <_>
      <rects>
        <_>
          18 18 3 3 -1.</_>
        <_>
          19 19 1 1 9.</_></rects>
      <tilted>0</tilted></_>
    <_>
      <rects>
        <_>
          18 19 4 2 -1.</_>
        <_>
          19 19 2 2 2.</_></rects>
      <tilted>0</tilted></_>
    <_>
      <rects>
        <_>
          18 21 4 1 -1.</_>
        <_>
          19 21 2 1 2.</_></rects>
      <tilted>0</tilted></_>
    <_>
      <rects>
        <_>
          19 5 1 3 -1.</_>
        <_>
          19 6 1 1 3.</_></rects>
      <tilted>0</tilted></_>
    <_>
      <rects>
        <_>
          19 6 16 13 -1.</_>
        <_>
          23 10 8 13 2.</_></rects>
      <tilted>1</tilted></_>
    <_>
      <rects>
        <_>
          19 16 2 8 -1.</_>
        <_>
          19 18 2 4 2.</_></rects>
      <tilted>0</tilted></_>
    <_>
      <rects>
        <_>
          19 17 2 3 -1.</_>
        <_>
          19 18 2 1 3.</_></rects>
      <tilted>0</tilted></_>
    <_>
      <rects>
        <_>
          19 17 2 4 -1.</_>
        <_>
          19 18 2 2 2.</_></rects>
      <tilted>0</tilted></_>
    <_>
      <rects>
        <_>
          19 19 3 3 -1.</_>
        <_>
          20 20 1 1 9.</_></rects>
      <tilted>0</tilted></_>
    <_>
      <rects>
        <_>
          19 19 4 2 -1.</_>
        <_>
          20 19 2 2 2.</_></rects>
      <tilted>0</tilted></_>
    <_>
      <rects>
        <_>
          19 19 2 4 -1.</_>
        <_>
          19 20 2 2 2.</_></rects>
      <tilted>0</tilted></_>
    <_>
      <rects>
        <_>
          19 20 2 3 -1.</_>
        <_>
          19 21 2 1 3.</_></rects>
      <tilted>0</tilted></_>
    <_>
      <rects>
        <_>
          19 29 18 10 -1.</_>
        <_>
          19 29 9 5 2.</_>
        <_>
          28 34 9 5 2.</_></rects>
      <tilted>0</tilted></_>
    <_>
      <rects>
        <_>
          20 7 18 33 -1.</_>
        <_>
          26 18 6 11 9.</_></rects>
      <tilted>0</tilted></_>
    <_>
      <rects>
        <_>
          20 17 3 3 -1.</_>
        <_>
          21 18 1 1 9.</_></rects>
      <tilted>0</tilted></_>
    <_>
      <rects>
        <_>
          20 19 3 2 -1.</_>
        <_>
          21 19 1 2 3.</_></rects>
      <tilted>0</tilted></_>
    <_>
      <rects>
        <_>
          20 20 3 3 -1.</_>
        <_>
          21 21 1 1 9.</_></rects>
      <tilted>0</tilted></_>
    <_>
      <rects>
        <_>
          21 18 1 4 -1.</_>
        <_>
          21 19 1 2 2.</_></rects>
      <tilted>0</tilted></_>
    <_>
      <rects>
        <_>
          21 19 3 3 -1.</_>
        <_>
          22 20 1 1 9.</_></rects>
      <tilted>0</tilted></_>
    <_>
      <rects>
        <_>
          21 22 3 3 -1.</_>
        <_>
          22 23 1 1 9.</_></rects>
      <tilted>0</tilted></_>
    <_>
      <rects>
        <_>
          22 5 13 16 -1.</_>
        <_>
          18 9 13 8 2.</_></rects>
      <tilted>1</tilted></_>
    <_>
      <rects>
        <_>
          22 12 15 16 -1.</_>
        <_>
          27 12 5 16 3.</_></rects>
      <tilted>0</tilted></_>
    <_>
      <rects>
        <_>
          22 21 3 1 -1.</_>
        <_>
          23 21 1 1 3.</_></rects>
      <tilted>0</tilted></_>
    <_>
      <rects>
        <_>
          24 12 5 12 -1.</_>
        <_>
          21 15 5 6 2.</_></rects>
      <tilted>1</tilted></_>
    <_>
      <rects>
        <_>
          25 6 1 3 -1.</_>
        <_>
          25 7 1 1 3.</_></rects>
      <tilted>0</tilted></_>
    <_>
      <rects>
        <_>
          27 1 12 18 -1.</_>
        <_>
          27 1 6 9 2.</_>
        <_>
          33 10 6 9 2.</_></rects>
      <tilted>0</tilted></_>
    <_>
      <rects>
        <_>
          27 9 2 2 -1.</_>
        <_>
          27 9 1 1 2.</_>
        <_>
          28 10 1 1 2.</_></rects>
      <tilted>0</tilted></_>
    <_>
      <rects>
        <_>
          27 11 10 18 -1.</_>
        <_>
          32 11 5 18 2.</_></rects>
      <tilted>0</tilted></_>
    <_>
      <rects>
        <_>
          27 29 2 2 -1.</_>
        <_>
          27 29 1 1 2.</_>
        <_>
          28 30 1 1 2.</_></rects>
      <tilted>0</tilted></_>
    <_>
      <rects>
        <_>
          27 30 1 3 -1.</_>
        <_>
          27 31 1 1 3.</_></rects>
      <tilted>0</tilted></_>
    <_>
      <rects>
        <_>
          28 4 9 9 -1.</_>
        <_>
          25 7 9 3 3.</_></rects>
      <tilted>1</tilted></_>
    <_>
      <rects>
        <_>
          28 16 12 11 -1.</_>
        <_>
          32 20 4 11 3.</_></rects>
      <tilted>1</tilted></_>
    <_>
      <rects>
        <_>
          28 16 12 24 -1.</_>
        <_>
          28 16 6 12 2.</_>
        <_>
          34 28 6 12 2.</_></rects>
      <tilted>0</tilted></_>
    <_>
      <rects>
        <_>
          28 18 9 9 -1.</_>
        <_>
          31 21 3 9 3.</_></rects>
      <tilted>1</tilted></_>
    <_>
      <rects>
        <_>
          28 28 2 2 -1.</_>
        <_>
          28 28 1 1 2.</_>
        <_>
          29 29 1 1 2.</_></rects>
      <tilted>0</tilted></_>
    <_>
      <rects>
        <_>
          29 0 10 3 -1.</_>
        <_>
          34 0 5 3 2.</_></rects>
      <tilted>0</tilted></_>
    <_>
      <rects>
        <_>
          29 3 3 33 -1.</_>
        <_>
          29 14 3 11 3.</_></rects>
      <tilted>0</tilted></_>
    <_>
      <rects>
        <_>
          29 11 2 2 -1.</_>
        <_>
          29 11 1 1 2.</_>
        <_>
          30 12 1 1 2.</_></rects>
      <tilted>0</tilted></_>
    <_>
      <rects>
        <_>
          29 27 2 2 -1.</_>
        <_>
          29 27 1 1 2.</_>
        <_>
          30 28 1 1 2.</_></rects>
      <tilted>0</tilted></_>
    <_>
      <rects>
        <_>
          30 10 2 2 -1.</_>
        <_>
          30 10 1 1 2.</_>
        <_>
          31 11 1 1 2.</_></rects>
      <tilted>0</tilted></_>
    <_>
      <rects>
        <_>
          32 17 3 1 -1.</_>
        <_>
          33 17 1 1 3.</_></rects>
      <tilted>0</tilted></_>
    <_>
      <rects>
        <_>
          34 31 6 9 -1.</_>
        <_>
          36 34 2 3 9.</_></rects>
      <tilted>0</tilted></_>
    <_>
      <rects>
        <_>
          36 0 4 2 -1.</_>
        <_>
          36 0 2 1 2.</_>
        <_>
          38 1 2 1 2.</_></rects>
      <tilted>0</tilted></_>
    <_>
      <rects>
        <_>
          36 0 2 10 -1.</_>
        <_>
          36 5 2 5 2.</_></rects>
      <tilted>0</tilted></_>
    <_>
      <rects>
        <_>
          36 32 2 8 -1.</_>
        <_>
          36 34 2 4 2.</_></rects>
      <tilted>0</tilted></_></features></cascade>
</opencv_storage>
