<?xml version="1.0"?>
<opencv_storage>
<stage8>
  <maxWeakCount>6</maxWeakCount>
  <stageThreshold>-3.5653364658355713e-01</stageThreshold>
  <weakClassifiers>
    <_>
      <internalNodes>
        0 -1 4056715 2.2466434529633261e-05</internalNodes>
      <leafValues>
        4.6261328458786011e-01 -8.5093897581100464e-01</leafValues></_>
    <_>
      <internalNodes>
        0 -1 3320647 -3.5806042433250695e-05</internalNodes>
      <leafValues>
        -8.0419814586639404e-01 3.3466169238090515e-01</leafValues></_>
    <_>
      <internalNodes>
        0 -1 3555383 -8.8274595327675343e-04</internalNodes>
      <leafValues>
        7.6519221067428589e-01 -3.8626611232757568e-01</leafValues></_>
    <_>
      <internalNodes>
        0 -1 2375347 -5.8755662292242050e-02</internalNodes>
      <leafValues>
        3.5722151398658752e-01 -8.8720828294754028e-01</leafValues></_>
    <_>
      <internalNodes>
        0 -1 3445431 1.5244036912918091e-03</internalNodes>
      <leafValues>
        -6.0241228342056274e-01 3.8768211007118225e-01</leafValues></_>
    <_>
      <internalNodes>
        0 -1 4062683 8.3975645247846842e-04</internalNodes>
      <leafValues>
        -3.7358632683753967e-01 8.5054296255111694e-01</leafValues></_></weakClassifiers></stage8>
</opencv_storage>
