<?xml version="1.0"?>
<opencv_storage>
<cascade>
  <stageType>BOOST</stageType>
  <featureType>HAAR</featureType>
  <height>40</height>
  <width>40</width>
  <stageParams>
    <boostType>GAB</boostType>
    <minHitRate>9.9900001287460327e-01</minHitRate>
    <maxFalseAlarm>5.0000000000000000e-01</maxFalseAlarm>
    <weightTrimRate>9.4999999999999996e-01</weightTrimRate>
    <maxDepth>1</maxDepth>
    <maxWeakCount>100</maxWeakCount></stageParams>
  <featureParams>
    <maxCatCount>0</maxCatCount>
    <featSize>1</featSize>
    <mode>ALL</mode></featureParams>
  <stageNum>2</stageNum>
  <stages>
    <!-- stage 0 -->
    <_>
      <maxWeakCount>4</maxWeakCount>
      <stageThreshold>-1.8996928930282593e+00</stageThreshold>
      <weakClassifiers>
        <_>
          <internalNodes>
            0 -1 2 4.8539647832512856e-03</internalNodes>
          <leafValues>
            -9.6270394325256348e-01 7.8672033548355103e-01</leafValues></_>
        <_>
          <internalNodes>
            0 -1 4 -5.0637228414416313e-03</internalNodes>
          <leafValues>
            9.1515630483627319e-01 -8.3941757678985596e-01</leafValues></_>
        <_>
          <internalNodes>
            0 -1 1 6.1234822496771812e-03</internalNodes>
          <leafValues>
            -9.5016831159591675e-01 6.6323810815811157e-01</leafValues></_>
        <_>
          <internalNodes>
            0 -1 3 1.5184965450316668e-03</internalNodes>
          <leafValues>
            -7.9191255569458008e-01 8.5259693861007690e-01</leafValues></_></weakClassifiers></_>
    <!-- stage 1 -->
    <_>
      <maxWeakCount>3</maxWeakCount>
      <stageThreshold>-1.2297898530960083e+00</stageThreshold>
      <weakClassifiers>
        <_>
          <internalNodes>
            0 -1 0 5.3549617528915405e-02</internalNodes>
          <leafValues>
            -9.0479296445846558e-01 6.3510394096374512e-01</leafValues></_>
        <_>
          <internalNodes>
            0 -1 5 3.9127863943576813e-02</internalNodes>
          <leafValues>
            -8.7296760082244873e-01 6.3233762979507446e-01</leafValues></_>
        <_>
          <internalNodes>
            0 -1 1 6.3949925824999809e-03</internalNodes>
          <leafValues>
            -9.5733445882797241e-01 5.7314193248748779e-01</leafValues></_></weakClassifiers></_></stages>
  <features>
    <_>
      <rects>
        <_>
          11 0 12 11 -1.</_>
        <_>
          14 3 6 11 2.</_></rects>
      <tilted>1</tilted></_>
    <_>
      <rects>
        <_>
          12 12 6 2 -1.</_>
        <_>
          12 12 3 2 2.</_></rects>
      <tilted>1</tilted></_>
    <_>
      <rects>
        <_>
          17 15 4 3 -1.</_>
        <_>
          18 16 2 3 2.</_></rects>
      <tilted>1</tilted></_>
    <_>
      <rects>
        <_>
          19 19 2 4 -1.</_>
        <_>
          19 20 2 2 2.</_></rects>
      <tilted>0</tilted></_>
    <_>
      <rects>
        <_>
          27 15 2 4 -1.</_>
        <_>
          26 16 2 2 2.</_></rects>
      <tilted>1</tilted></_>
    <_>
      <rects>
        <_>
          30 0 10 12 -1.</_>
        <_>
          27 3 10 6 2.</_></rects>
      <tilted>1</tilted></_></features></cascade>
</opencv_storage>
