<?xml version="1.0"?>
<opencv_storage>
<cascade>
  <stageType>BOOST</stageType>
  <featureType>HAAR</featureType>
  <height>40</height>
  <width>40</width>
  <stageParams>
    <boostType>GAB</boostType>
    <minHitRate>9.9900001287460327e-01</minHitRate>
    <maxFalseAlarm>3.4999999403953552e-01</maxFalseAlarm>
    <weightTrimRate>9.4999999999999996e-01</weightTrimRate>
    <maxDepth>1</maxDepth>
    <maxWeakCount>100</maxWeakCount></stageParams>
  <featureParams>
    <maxCatCount>0</maxCatCount>
    <featSize>1</featSize>
    <mode>ALL</mode></featureParams>
  <stageNum>10</stageNum>
  <stages>
    <!-- stage 0 -->
    <_>
      <maxWeakCount>3</maxWeakCount>
      <stageThreshold>-1.1565753221511841e+00</stageThreshold>
      <weakClassifiers>
        <_>
          <internalNodes>
            0 -1 8 -7.2115557268261909e-03</internalNodes>
          <leafValues>
            8.5440236330032349e-01 -9.2248064279556274e-01</leafValues></_>
        <_>
          <internalNodes>
            0 -1 6 -1.7015591263771057e-02</internalNodes>
          <leafValues>
            7.6247793436050415e-01 -9.0082013607025146e-01</leafValues></_>
        <_>
          <internalNodes>
            0 -1 35 1.4930148608982563e-03</internalNodes>
          <leafValues>
            -9.1075277328491211e-01 6.6672545671463013e-01</leafValues></_></weakClassifiers></_>
    <!-- stage 1 -->
    <_>
      <maxWeakCount>4</maxWeakCount>
      <stageThreshold>-1.7790060043334961e+00</stageThreshold>
      <weakClassifiers>
        <_>
          <internalNodes>
            0 -1 49 -4.9063824117183685e-03</internalNodes>
          <leafValues>
            9.3886965513229370e-01 -8.0465400218963623e-01</leafValues></_>
        <_>
          <internalNodes>
            0 -1 21 -2.3212344385683537e-03</internalNodes>
          <leafValues>
            7.3096179962158203e-01 -8.7107568979263306e-01</leafValues></_>
        <_>
          <internalNodes>
            0 -1 2 2.2691855207085609e-02</internalNodes>
          <leafValues>
            -9.0645670890808105e-01 5.5452090501785278e-01</leafValues></_>
        <_>
          <internalNodes>
            0 -1 22 6.0954261571168900e-03</internalNodes>
          <leafValues>
            -9.4034320116043091e-01 4.7083535790443420e-01</leafValues></_></weakClassifiers></_>
    <!-- stage 2 -->
    <_>
      <maxWeakCount>6</maxWeakCount>
      <stageThreshold>-2.0903275012969971e+00</stageThreshold>
      <weakClassifiers>
        <_>
          <internalNodes>
            0 -1 45 3.0999192968010902e-03</internalNodes>
          <leafValues>
            -7.9414665699005127e-01 7.2230732440948486e-01</leafValues></_>
        <_>
          <internalNodes>
            0 -1 20 5.0914585590362549e-03</internalNodes>
          <leafValues>
            -8.3471518754959106e-01 5.9684824943542480e-01</leafValues></_>
        <_>
          <internalNodes>
            0 -1 51 1.9777141511440277e-02</internalNodes>
          <leafValues>
            -8.6128509044647217e-01 5.4948383569717407e-01</leafValues></_>
        <_>
          <internalNodes>
            0 -1 34 -3.7607885897159576e-03</internalNodes>
          <leafValues>
            7.2329604625701904e-01 -6.2379360198974609e-01</leafValues></_>
        <_>
          <internalNodes>
            0 -1 13 7.9099386930465698e-03</internalNodes>
          <leafValues>
            -8.1479114294052124e-01 5.4651838541030884e-01</leafValues></_>
        <_>
          <internalNodes>
            0 -1 31 4.0437183342874050e-03</internalNodes>
          <leafValues>
            -8.0683434009552002e-01 4.7709470987319946e-01</leafValues></_></weakClassifiers></_>
    <!-- stage 3 -->
    <_>
      <maxWeakCount>7</maxWeakCount>
      <stageThreshold>-1.4658608436584473e+00</stageThreshold>
      <weakClassifiers>
        <_>
          <internalNodes>
            0 -1 44 5.4943794384598732e-03</internalNodes>
          <leafValues>
            -8.8808375597000122e-01 4.7933226823806763e-01</leafValues></_>
        <_>
          <internalNodes>
            0 -1 26 6.3977567479014397e-03</internalNodes>
          <leafValues>
            -7.2227615118026733e-01 6.2255162000656128e-01</leafValues></_>
        <_>
          <internalNodes>
            0 -1 38 -8.1554017961025238e-03</internalNodes>
          <leafValues>
            4.6454864740371704e-01 -8.0590736865997314e-01</leafValues></_>
        <_>
          <internalNodes>
            0 -1 53 3.0983644537627697e-03</internalNodes>
          <leafValues>
            -8.1730371713638306e-01 4.2558467388153076e-01</leafValues></_>
        <_>
          <internalNodes>
            0 -1 30 2.4042492732405663e-03</internalNodes>
          <leafValues>
            -6.6865986585617065e-01 5.7399785518646240e-01</leafValues></_>
        <_>
          <internalNodes>
            0 -1 32 3.2084451522678137e-03</internalNodes>
          <leafValues>
            -4.7469475865364075e-01 8.0388218164443970e-01</leafValues></_>
        <_>
          <internalNodes>
            0 -1 0 1.8226331099867821e-02</internalNodes>
          <leafValues>
            -8.4493744373321533e-01 4.4811746478080750e-01</leafValues></_></weakClassifiers></_>
    <!-- stage 4 -->
    <_>
      <maxWeakCount>6</maxWeakCount>
      <stageThreshold>-1.3507758378982544e+00</stageThreshold>
      <weakClassifiers>
        <_>
          <internalNodes>
            0 -1 15 -4.2523196898400784e-03</internalNodes>
          <leafValues>
            6.7621147632598877e-01 -6.9974875450134277e-01</leafValues></_>
        <_>
          <internalNodes>
            0 -1 41 -1.2688064016401768e-02</internalNodes>
          <leafValues>
            4.8897463083267212e-01 -8.2713699340820312e-01</leafValues></_>
        <_>
          <internalNodes>
            0 -1 23 5.7377391494810581e-03</internalNodes>
          <leafValues>
            -7.3542803525924683e-01 4.9044430255889893e-01</leafValues></_>
        <_>
          <internalNodes>
            0 -1 14 -1.0191829460381996e-05</internalNodes>
          <leafValues>
            -9.2822223901748657e-01 3.2270926237106323e-01</leafValues></_>
        <_>
          <internalNodes>
            0 -1 14 9.4308488769456744e-06</internalNodes>
          <leafValues>
            4.0309709310531616e-01 -9.3941348791122437e-01</leafValues></_>
        <_>
          <internalNodes>
            0 -1 1 -1.8645469099283218e-02</internalNodes>
          <leafValues>
            3.0236989259719849e-01 -8.4431624412536621e-01</leafValues></_></weakClassifiers></_>
    <!-- stage 5 -->
    <_>
      <maxWeakCount>7</maxWeakCount>
      <stageThreshold>-1.8638926744461060e+00</stageThreshold>
      <weakClassifiers>
        <_>
          <internalNodes>
            0 -1 47 2.4208007380366325e-03</internalNodes>
          <leafValues>
            -6.6886585950851440e-01 6.2135386466979980e-01</leafValues></_>
        <_>
          <internalNodes>
            0 -1 12 -7.7531463466584682e-03</internalNodes>
          <leafValues>
            5.3101164102554321e-01 -7.0658028125762939e-01</leafValues></_>
        <_>
          <internalNodes>
            0 -1 46 -1.0857606306672096e-02</internalNodes>
          <leafValues>
            4.4768795371055603e-01 -7.9545938968658447e-01</leafValues></_>
        <_>
          <internalNodes>
            0 -1 50 3.2419266062788665e-05</internalNodes>
          <leafValues>
            3.1394150853157043e-01 -9.5548915863037109e-01</leafValues></_>
        <_>
          <internalNodes>
            0 -1 50 -8.4226921899244189e-06</internalNodes>
          <leafValues>
            -8.9787352085113525e-01 3.4229716658592224e-01</leafValues></_>
        <_>
          <internalNodes>
            0 -1 29 -1.4528390020132065e-03</internalNodes>
          <leafValues>
            4.7421681880950928e-01 -6.4477431774139404e-01</leafValues></_>
        <_>
          <internalNodes>
            0 -1 7 -6.2824949622154236e-02</internalNodes>
          <leafValues>
            2.9554846882820129e-01 -9.1987919807434082e-01</leafValues></_></weakClassifiers></_>
    <!-- stage 6 -->
    <_>
      <maxWeakCount>8</maxWeakCount>
      <stageThreshold>-1.2873995304107666e+00</stageThreshold>
      <weakClassifiers>
        <_>
          <internalNodes>
            0 -1 17 -4.4059418141841888e-03</internalNodes>
          <leafValues>
            6.3709676265716553e-01 -6.4522057771682739e-01</leafValues></_>
        <_>
          <internalNodes>
            0 -1 40 9.7315926104784012e-03</internalNodes>
          <leafValues>
            -9.1044563055038452e-01 4.1786238551139832e-01</leafValues></_>
        <_>
          <internalNodes>
            0 -1 16 2.8225854039192200e-03</internalNodes>
          <leafValues>
            -5.5135011672973633e-01 6.7754524946212769e-01</leafValues></_>
        <_>
          <internalNodes>
            0 -1 19 4.6624206006526947e-03</internalNodes>
          <leafValues>
            -8.9144390821456909e-01 3.4960365295410156e-01</leafValues></_>
        <_>
          <internalNodes>
            0 -1 39 -1.4157977420836687e-03</internalNodes>
          <leafValues>
            8.5393989086151123e-01 -3.9310991764068604e-01</leafValues></_>
        <_>
          <internalNodes>
            0 -1 11 1.3029147870838642e-02</internalNodes>
          <leafValues>
            -9.3256521224975586e-01 3.4291315078735352e-01</leafValues></_>
        <_>
          <internalNodes>
            0 -1 42 1.7057938501238823e-02</internalNodes>
          <leafValues>
            2.5452274084091187e-01 -9.0921384096145630e-01</leafValues></_>
        <_>
          <internalNodes>
            0 -1 54 -1.1546402238309383e-03</internalNodes>
          <leafValues>
            2.6568719744682312e-01 -8.3527666330337524e-01</leafValues></_></weakClassifiers></_>
    <!-- stage 7 -->
    <_>
      <maxWeakCount>4</maxWeakCount>
      <stageThreshold>-1.0425039529800415e+00</stageThreshold>
      <weakClassifiers>
        <_>
          <internalNodes>
            0 -1 4 -7.3399901390075684e-02</internalNodes>
          <leafValues>
            2.7931034564971924e-01 -8.6190474033355713e-01</leafValues></_>
        <_>
          <internalNodes>
            0 -1 36 1.1357516050338745e-03</internalNodes>
          <leafValues>
            -6.9441622495651245e-01 4.5882201194763184e-01</leafValues></_>
        <_>
          <internalNodes>
            0 -1 24 3.7986916140653193e-05</internalNodes>
          <leafValues>
            3.1098750233650208e-01 -9.6207457780838013e-01</leafValues></_>
        <_>
          <internalNodes>
            0 -1 24 -3.3564767363714054e-05</internalNodes>
          <leafValues>
            -9.9819523096084595e-01 3.2265341281890869e-01</leafValues></_></weakClassifiers></_>
    <!-- stage 8 -->
    <_>
      <maxWeakCount>7</maxWeakCount>
      <stageThreshold>-1.7841855287551880e+00</stageThreshold>
      <weakClassifiers>
        <_>
          <internalNodes>
            0 -1 43 3.7391721270978451e-03</internalNodes>
          <leafValues>
            -6.9089049100875854e-01 4.9540841579437256e-01</leafValues></_>
        <_>
          <internalNodes>
            0 -1 18 -5.9462031349539757e-03</internalNodes>
          <leafValues>
            5.8381664752960205e-01 -5.3723824024200439e-01</leafValues></_>
        <_>
          <internalNodes>
            0 -1 25 -7.1270260959863663e-03</internalNodes>
          <leafValues>
            7.3791021108627319e-01 -3.9629399776458740e-01</leafValues></_>
        <_>
          <internalNodes>
            0 -1 28 -3.1956587918102741e-05</internalNodes>
          <leafValues>
            -1. 2.9578444361686707e-01</leafValues></_>
        <_>
          <internalNodes>
            0 -1 27 -9.9303142633289099e-04</internalNodes>
          <leafValues>
            2.7269724011421204e-01 -9.0049850940704346e-01</leafValues></_>
        <_>
          <internalNodes>
            0 -1 5 -3.0967893078923225e-02</internalNodes>
          <leafValues>
            2.2822082042694092e-01 -8.9011514186859131e-01</leafValues></_>
        <_>
          <internalNodes>
            0 -1 28 1.8506580090615898e-05</internalNodes>
          <leafValues>
            2.0086218416690826e-01 -9.8591774702072144e-01</leafValues></_></weakClassifiers></_>
    <!-- stage 9 -->
    <_>
      <maxWeakCount>7</maxWeakCount>
      <stageThreshold>-1.3027675151824951e+00</stageThreshold>
      <weakClassifiers>
        <_>
          <internalNodes>
            0 -1 48 1.2793516740202904e-02</internalNodes>
          <leafValues>
            -7.6329469680786133e-01 3.6374551057815552e-01</leafValues></_>
        <_>
          <internalNodes>
            0 -1 9 3.8188587874174118e-02</internalNodes>
          <leafValues>
            -6.5206325054168701e-01 4.2359516024589539e-01</leafValues></_>
        <_>
          <internalNodes>
            0 -1 37 3.0916178366169333e-04</internalNodes>
          <leafValues>
            -8.2083815336227417e-01 3.5747885704040527e-01</leafValues></_>
        <_>
          <internalNodes>
            0 -1 52 1.1952403932809830e-02</internalNodes>
          <leafValues>
            -9.2433601617813110e-01 2.9952576756477356e-01</leafValues></_>
        <_>
          <internalNodes>
            0 -1 33 1.4289852697402239e-04</internalNodes>
          <leafValues>
            2.5085920095443726e-01 -9.3306535482406616e-01</leafValues></_>
        <_>
          <internalNodes>
            0 -1 10 2.2705495211994275e-05</internalNodes>
          <leafValues>
            2.1304817497730255e-01 -9.4560080766677856e-01</leafValues></_>
        <_>
          <internalNodes>
            0 -1 3 -3.1002156902104616e-03</internalNodes>
          <leafValues>
            2.1554024517536163e-01 -9.3016660213470459e-01</leafValues></_></weakClassifiers></_></stages>
  <features>
    <_>
      <rects>
        <_>
          0 13 18 6 -1.</_>
        <_>
          6 15 6 2 9.</_></rects>
      <tilted>0</tilted></_>
    <_>
      <rects>
        <_>
          2 3 24 18 -1.</_>
        <_>
          2 3 12 9 2.</_>
        <_>
          14 12 12 9 2.</_></rects>
      <tilted>0</tilted></_>
    <_>
      <rects>
        <_>
          3 3 18 3 -1.</_>
        <_>
          9 9 6 3 3.</_></rects>
      <tilted>1</tilted></_>
    <_>
      <rects>
        <_>
          3 15 36 6 -1.</_>
        <_>
          3 18 36 3 2.</_></rects>
      <tilted>0</tilted></_>
    <_>
      <rects>
        <_>
          4 13 32 15 -1.</_>
        <_>
          12 13 16 15 2.</_></rects>
      <tilted>0</tilted></_>
    <_>
      <rects>
        <_>
          5 11 27 17 -1.</_>
        <_>
          14 11 9 17 3.</_></rects>
      <tilted>0</tilted></_>
    <_>
      <rects>
        <_>
          8 13 24 4 -1.</_>
        <_>
          14 13 12 4 2.</_></rects>
      <tilted>0</tilted></_>
    <_>
      <rects>
        <_>
          9 7 24 32 -1.</_>
        <_>
          9 23 24 16 2.</_></rects>
      <tilted>0</tilted></_>
    <_>
      <rects>
        <_>
          9 16 12 2 -1.</_>
        <_>
          13 16 4 2 3.</_></rects>
      <tilted>0</tilted></_>
    <_>
      <rects>
        <_>
          10 0 12 9 -1.</_>
        <_>
          14 4 4 9 3.</_></rects>
      <tilted>1</tilted></_>
    <_>
      <rects>
        <_>
          12 12 2 3 -1.</_>
        <_>
          12 12 1 3 2.</_></rects>
      <tilted>1</tilted></_>
    <_>
      <rects>
        <_>
          12 12 14 5 -1.</_>
        <_>
          12 12 7 5 2.</_></rects>
      <tilted>1</tilted></_>
    <_>
      <rects>
        <_>
          13 9 2 14 -1.</_>
        <_>
          13 16 2 7 2.</_></rects>
      <tilted>0</tilted></_>
    <_>
      <rects>
        <_>
          13 11 6 3 -1.</_>
        <_>
          13 11 3 3 2.</_></rects>
      <tilted>1</tilted></_>
    <_>
      <rects>
        <_>
          13 13 1 2 -1.</_>
        <_>
          13 13 1 1 2.</_></rects>
      <tilted>1</tilted></_>
    <_>
      <rects>
        <_>
          13 16 3 3 -1.</_>
        <_>
          14 17 1 1 9.</_></rects>
      <tilted>0</tilted></_>
    <_>
      <rects>
        <_>
          13 19 6 1 -1.</_>
        <_>
          15 19 2 1 3.</_></rects>
      <tilted>0</tilted></_>
    <_>
      <rects>
        <_>
          14 15 3 3 -1.</_>
        <_>
          15 16 1 1 9.</_></rects>
      <tilted>0</tilted></_>
    <_>
      <rects>
        <_>
          14 15 4 2 -1.</_>
        <_>
          15 16 2 2 2.</_></rects>
      <tilted>1</tilted></_>
    <_>
      <rects>
        <_>
          14 16 9 3 -1.</_>
        <_>
          17 17 3 1 9.</_></rects>
      <tilted>0</tilted></_>
    <_>
      <rects>
        <_>
          14 17 6 3 -1.</_>
        <_>
          16 18 2 1 9.</_></rects>
      <tilted>0</tilted></_>
    <_>
      <rects>
        <_>
          15 16 6 4 -1.</_>
        <_>
          15 16 3 2 2.</_>
        <_>
          18 18 3 2 2.</_></rects>
      <tilted>0</tilted></_>
    <_>
      <rects>
        <_>
          17 10 5 18 -1.</_>
        <_>
          17 16 5 6 3.</_></rects>
      <tilted>0</tilted></_>
    <_>
      <rects>
        <_>
          17 14 7 6 -1.</_>
        <_>
          17 16 7 2 3.</_></rects>
      <tilted>0</tilted></_>
    <_>
      <rects>
        <_>
          17 17 3 1 -1.</_>
        <_>
          18 17 1 1 3.</_></rects>
      <tilted>0</tilted></_>
    <_>
      <rects>
        <_>
          17 18 3 3 -1.</_>
        <_>
          18 19 1 1 9.</_></rects>
      <tilted>0</tilted></_>
    <_>
      <rects>
        <_>
          18 14 4 4 -1.</_>
        <_>
          19 15 2 4 2.</_></rects>
      <tilted>1</tilted></_>
    <_>
      <rects>
        <_>
          18 16 8 1 -1.</_>
        <_>
          22 16 4 1 2.</_></rects>
      <tilted>0</tilted></_>
    <_>
      <rects>
        <_>
          18 17 2 1 -1.</_>
        <_>
          19 17 1 1 2.</_></rects>
      <tilted>0</tilted></_>
    <_>
      <rects>
        <_>
          18 18 3 1 -1.</_>
        <_>
          19 19 1 1 3.</_></rects>
      <tilted>1</tilted></_>
    <_>
      <rects>
        <_>
          18 19 3 3 -1.</_>
        <_>
          19 20 1 1 9.</_></rects>
      <tilted>0</tilted></_>
    <_>
      <rects>
        <_>
          18 19 6 3 -1.</_>
        <_>
          20 20 2 1 9.</_></rects>
      <tilted>0</tilted></_>
    <_>
      <rects>
        <_>
          18 23 3 3 -1.</_>
        <_>
          19 24 1 1 9.</_></rects>
      <tilted>0</tilted></_>
    <_>
      <rects>
        <_>
          19 16 1 2 -1.</_>
        <_>
          19 16 1 1 2.</_></rects>
      <tilted>1</tilted></_>
    <_>
      <rects>
        <_>
          19 17 3 2 -1.</_>
        <_>
          20 18 1 2 3.</_></rects>
      <tilted>1</tilted></_>
    <_>
      <rects>
        <_>
          19 19 3 3 -1.</_>
        <_>
          20 20 1 1 9.</_></rects>
      <tilted>0</tilted></_>
    <_>
      <rects>
        <_>
          19 19 2 3 -1.</_>
        <_>
          19 20 2 1 3.</_></rects>
      <tilted>0</tilted></_>
    <_>
      <rects>
        <_>
          19 19 4 2 -1.</_>
        <_>
          19 20 4 1 2.</_></rects>
      <tilted>0</tilted></_>
    <_>
      <rects>
        <_>
          20 16 4 14 -1.</_>
        <_>
          20 23 4 7 2.</_></rects>
      <tilted>0</tilted></_>
    <_>
      <rects>
        <_>
          20 24 1 3 -1.</_>
        <_>
          20 25 1 1 3.</_></rects>
      <tilted>0</tilted></_>
    <_>
      <rects>
        <_>
          21 14 18 3 -1.</_>
        <_>
          27 14 6 3 3.</_></rects>
      <tilted>0</tilted></_>
    <_>
      <rects>
        <_>
          21 17 12 10 -1.</_>
        <_>
          25 17 4 10 3.</_></rects>
      <tilted>0</tilted></_>
    <_>
      <rects>
        <_>
          22 10 8 12 -1.</_>
        <_>
          22 10 4 12 2.</_></rects>
      <tilted>1</tilted></_>
    <_>
      <rects>
        <_>
          22 16 4 6 -1.</_>
        <_>
          22 16 2 3 2.</_>
        <_>
          24 19 2 3 2.</_></rects>
      <tilted>0</tilted></_>
    <_>
      <rects>
        <_>
          23 16 10 2 -1.</_>
        <_>
          28 16 5 2 2.</_></rects>
      <tilted>0</tilted></_>
    <_>
      <rects>
        <_>
          25 16 2 3 -1.</_>
        <_>
          24 17 2 1 3.</_></rects>
      <tilted>1</tilted></_>
    <_>
      <rects>
        <_>
          25 18 9 6 -1.</_>
        <_>
          28 21 3 6 3.</_></rects>
      <tilted>1</tilted></_>
    <_>
      <rects>
        <_>
          26 17 1 3 -1.</_>
        <_>
          25 18 1 1 3.</_></rects>
      <tilted>1</tilted></_>
    <_>
      <rects>
        <_>
          26 17 10 8 -1.</_>
        <_>
          31 17 5 8 2.</_></rects>
      <tilted>0</tilted></_>
    <_>
      <rects>
        <_>
          27 14 2 4 -1.</_>
        <_>
          26 15 2 2 2.</_></rects>
      <tilted>1</tilted></_>
    <_>
      <rects>
        <_>
          27 15 4 1 -1.</_>
        <_>
          29 15 2 1 2.</_></rects>
      <tilted>0</tilted></_>
    <_>
      <rects>
        <_>
          29 9 7 10 -1.</_>
        <_>
          29 9 7 5 2.</_></rects>
      <tilted>1</tilted></_>
    <_>
      <rects>
        <_>
          29 12 4 18 -1.</_>
        <_>
          29 12 4 9 2.</_></rects>
      <tilted>1</tilted></_>
    <_>
      <rects>
        <_>
          32 8 1 9 -1.</_>
        <_>
          29 11 1 3 3.</_></rects>
      <tilted>1</tilted></_>
    <_>
      <rects>
        <_>
          38 0 2 12 -1.</_>
        <_>
          38 0 2 6 2.</_></rects>
      <tilted>1</tilted></_></features></cascade>
</opencv_storage>
