<?xml version="1.0"?>
<opencv_storage>
<stage2>
  <maxWeakCount>6</maxWeakCount>
  <stageThreshold>-2.0903275012969971e+00</stageThreshold>
  <weakClassifiers>
    <_>
      <internalNodes>
        0 -1 1706036 3.0999192968010902e-03</internalNodes>
      <leafValues>
        -7.9414665699005127e-01 7.2230732440948486e-01</leafValues></_>
    <_>
      <internalNodes>
        0 -1 1091579 5.0914585590362549e-03</internalNodes>
      <leafValues>
        -8.3471518754959106e-01 5.9684824943542480e-01</leafValues></_>
    <_>
      <internalNodes>
        0 -1 1854271 1.9777141511440277e-02</internalNodes>
      <leafValues>
        -8.6128509044647217e-01 5.4948383569717407e-01</leafValues></_>
    <_>
      <internalNodes>
        0 -1 1401222 -3.7607885897159576e-03</internalNodes>
      <leafValues>
        7.2329604625701904e-01 -6.2379360198974609e-01</leafValues></_>
    <_>
      <internalNodes>
        0 -1 1011682 7.9099386930465698e-03</internalNodes>
      <leafValues>
        -8.1479114294052124e-01 5.4651838541030884e-01</leafValues></_>
    <_>
      <internalNodes>
        0 -1 1346271 4.0437183342874050e-03</internalNodes>
      <leafValues>
        -8.0683434009552002e-01 4.7709470987319946e-01</leafValues></_></weakClassifiers></stage2>
</opencv_storage>
