<?xml version="1.0"?>
<opencv_storage>
<stage5>
  <maxWeakCount>6</maxWeakCount>
  <stageThreshold>-4.0291664004325867e-01</stageThreshold>
  <weakClassifiers>
    <_>
      <internalNodes>
        0 -1 8094617 -2.2666759832645766e-05</internalNodes>
      <leafValues>
        -8.7693899869918823e-01 5.3217530250549316e-01</leafValues></_>
    <_>
      <internalNodes>
        0 -1 7538954 -2.2107291442807764e-05</internalNodes>
      <leafValues>
        -9.0379929542541504e-01 3.4345540404319763e-01</leafValues></_>
    <_>
      <internalNodes>
        0 -1 7345203 -4.3660420924425125e-03</internalNodes>
      <leafValues>
        3.3210140466690063e-01 -9.4784575700759888e-01</leafValues></_>
    <_>
      <internalNodes>
        0 -1 4013490 8.2337379455566406e-02</internalNodes>
      <leafValues>
        2.8484299778938293e-01 -9.4046300649642944e-01</leafValues></_>
    <_>
      <internalNodes>
        0 -1 5237874 4.7138044610619545e-03</internalNodes>
      <leafValues>
        -9.7195798158645630e-01 3.2267460227012634e-01</leafValues></_>
    <_>
      <internalNodes>
        0 -1 2182 1.0484663769602776e-02</internalNodes>
      <leafValues>
        -7.5184768438339233e-01 4.1625395417213440e-01</leafValues></_></weakClassifiers></stage5>
</opencv_storage>
