<?xml version="1.0"?>
<opencv_storage>
<cascade>
  <stageType>BOOST</stageType>
  <featureType>HAAR</featureType>
  <height>40</height>
  <width>40</width>
  <stageParams>
    <boostType>GAB</boostType>
    <minHitRate>9.4999998807907104e-01</minHitRate>
    <maxFalseAlarm>3.4999999403953552e-01</maxFalseAlarm>
    <weightTrimRate>9.4999999999999996e-01</weightTrimRate>
    <maxDepth>1</maxDepth>
    <maxWeakCount>100</maxWeakCount></stageParams>
  <featureParams>
    <maxCatCount>0</maxCatCount>
    <featSize>1</featSize>
    <mode>ALL</mode></featureParams>
  <stageNum>10</stageNum>
  <stages>
    <!-- stage 0 -->
    <_>
      <maxWeakCount>2</maxWeakCount>
      <stageThreshold>-2.6810905337333679e-01</stageThreshold>
      <weakClassifiers>
        <_>
          <internalNodes>
            0 -1 36 -1.1783652007579803e-02</internalNodes>
          <leafValues>
            6.4059656858444214e-01 -8.2188296318054199e-01</leafValues></_>
        <_>
          <internalNodes>
            0 -1 9 9.6849454566836357e-03</internalNodes>
          <leafValues>
            -7.1553629636764526e-01 5.5377388000488281e-01</leafValues></_></weakClassifiers></_>
    <!-- stage 1 -->
    <_>
      <maxWeakCount>3</maxWeakCount>
      <stageThreshold>-6.9811028242111206e-01</stageThreshold>
      <weakClassifiers>
        <_>
          <internalNodes>
            0 -1 10 7.3525384068489075e-03</internalNodes>
          <leafValues>
            -8.1705296039581299e-01 4.7795072197914124e-01</leafValues></_>
        <_>
          <internalNodes>
            0 -1 1 1.4076045714318752e-02</internalNodes>
          <leafValues>
            -7.3367208242416382e-01 5.1703357696533203e-01</leafValues></_>
        <_>
          <internalNodes>
            0 -1 29 -1.2075563427060843e-03</internalNodes>
          <leafValues>
            8.6016869544982910e-01 -4.4238886237144470e-01</leafValues></_></weakClassifiers></_>
    <!-- stage 2 -->
    <_>
      <maxWeakCount>3</maxWeakCount>
      <stageThreshold>-8.0898457765579224e-01</stageThreshold>
      <weakClassifiers>
        <_>
          <internalNodes>
            0 -1 0 1.5724316239356995e-02</internalNodes>
          <leafValues>
            -7.9842388629913330e-01 4.6131435036659241e-01</leafValues></_>
        <_>
          <internalNodes>
            0 -1 8 9.1359224170446396e-03</internalNodes>
          <leafValues>
            -7.6062512397766113e-01 3.6428257822990417e-01</leafValues></_>
        <_>
          <internalNodes>
            0 -1 21 -6.5435207216069102e-04</internalNodes>
          <leafValues>
            7.5006443262100220e-01 -4.2838501930236816e-01</leafValues></_></weakClassifiers></_>
    <!-- stage 3 -->
    <_>
      <maxWeakCount>4</maxWeakCount>
      <stageThreshold>-7.1079194545745850e-01</stageThreshold>
      <weakClassifiers>
        <_>
          <internalNodes>
            0 -1 38 -2.5834072381258011e-02</internalNodes>
          <leafValues>
            4.9607983231544495e-01 -7.0230138301849365e-01</leafValues></_>
        <_>
          <internalNodes>
            0 -1 32 -7.7369564678519964e-04</internalNodes>
          <leafValues>
            7.4043339490890503e-01 -4.4021564722061157e-01</leafValues></_>
        <_>
          <internalNodes>
            0 -1 18 -1.1751346755772829e-03</internalNodes>
          <leafValues>
            7.4351871013641357e-01 -3.7587952613830566e-01</leafValues></_>
        <_>
          <internalNodes>
            0 -1 22 3.6538140848278999e-03</internalNodes>
          <leafValues>
            -3.7304437160491943e-01 8.7116336822509766e-01</leafValues></_></weakClassifiers></_>
    <!-- stage 4 -->
    <_>
      <maxWeakCount>4</maxWeakCount>
      <stageThreshold>-1.9892007112503052e-01</stageThreshold>
      <weakClassifiers>
        <_>
          <internalNodes>
            0 -1 39 2.2566616535186768e-02</internalNodes>
          <leafValues>
            -7.6596695184707642e-01 3.7258508801460266e-01</leafValues></_>
        <_>
          <internalNodes>
            0 -1 6 1.3077376410365105e-02</internalNodes>
          <leafValues>
            -7.9810446500778198e-01 3.2770788669586182e-01</leafValues></_>
        <_>
          <internalNodes>
            0 -1 28 -9.7138306591659784e-04</internalNodes>
          <leafValues>
            6.5382122993469238e-01 -4.2967444658279419e-01</leafValues></_>
        <_>
          <internalNodes>
            0 -1 17 -7.9410686157643795e-04</internalNodes>
          <leafValues>
            6.9684076309204102e-01 -4.1448223590850830e-01</leafValues></_></weakClassifiers></_>
    <!-- stage 5 -->
    <_>
      <maxWeakCount>4</maxWeakCount>
      <stageThreshold>-6.3924205303192139e-01</stageThreshold>
      <weakClassifiers>
        <_>
          <internalNodes>
            0 -1 5 1.5966145321726799e-02</internalNodes>
          <leafValues>
            -7.7540647983551025e-01 2.9048696160316467e-01</leafValues></_>
        <_>
          <internalNodes>
            0 -1 3 1.3795224949717522e-02</internalNodes>
          <leafValues>
            2.4309617280960083e-01 -8.9820975065231323e-01</leafValues></_>
        <_>
          <internalNodes>
            0 -1 35 -4.6077659353613853e-03</internalNodes>
          <leafValues>
            -8.3985275030136108e-01 3.1950649619102478e-01</leafValues></_>
        <_>
          <internalNodes>
            0 -1 15 2.5777425616979599e-03</internalNodes>
          <leafValues>
            -4.2643821239471436e-01 5.6038969755172729e-01</leafValues></_></weakClassifiers></_>
    <!-- stage 6 -->
    <_>
      <maxWeakCount>4</maxWeakCount>
      <stageThreshold>-3.0877619981765747e-01</stageThreshold>
      <weakClassifiers>
        <_>
          <internalNodes>
            0 -1 2 7.5106367468833923e-02</internalNodes>
          <leafValues>
            -7.3458904027938843e-01 3.8432362675666809e-01</leafValues></_>
        <_>
          <internalNodes>
            0 -1 14 1.9946057349443436e-02</internalNodes>
          <leafValues>
            -7.9407304525375366e-01 2.6236483454704285e-01</leafValues></_>
        <_>
          <internalNodes>
            0 -1 23 -7.0158403832465410e-04</internalNodes>
          <leafValues>
            5.2791541814804077e-01 -4.2408886551856995e-01</leafValues></_>
        <_>
          <internalNodes>
            0 -1 24 -1.0918416082859039e-03</internalNodes>
          <leafValues>
            6.4678204059600830e-01 -3.6446738243103027e-01</leafValues></_></weakClassifiers></_>
    <!-- stage 7 -->
    <_>
      <maxWeakCount>6</maxWeakCount>
      <stageThreshold>-2.7211499214172363e-01</stageThreshold>
      <weakClassifiers>
        <_>
          <internalNodes>
            0 -1 11 -1.9396319985389709e-02</internalNodes>
          <leafValues>
            2.1917070448398590e-01 -7.3572230339050293e-01</leafValues></_>
        <_>
          <internalNodes>
            0 -1 34 3.0579238664358854e-03</internalNodes>
          <leafValues>
            -3.4095039963722229e-01 6.4079922437667847e-01</leafValues></_>
        <_>
          <internalNodes>
            0 -1 31 2.4520501028746367e-03</internalNodes>
          <leafValues>
            -3.3167552947998047e-01 6.0895788669586182e-01</leafValues></_>
        <_>
          <internalNodes>
            0 -1 33 2.9348128009587526e-03</internalNodes>
          <leafValues>
            -3.5157671570777893e-01 6.5424555540084839e-01</leafValues></_>
        <_>
          <internalNodes>
            0 -1 13 1.3501411303877831e-02</internalNodes>
          <leafValues>
            2.7920475602149963e-01 -8.5418182611465454e-01</leafValues></_>
        <_>
          <internalNodes>
            0 -1 20 -5.9064328670501709e-03</internalNodes>
          <leafValues>
            -7.8401422500610352e-01 2.6797175407409668e-01</leafValues></_></weakClassifiers></_>
    <!-- stage 8 -->
    <_>
      <maxWeakCount>5</maxWeakCount>
      <stageThreshold>-2.4631650745868683e-01</stageThreshold>
      <weakClassifiers>
        <_>
          <internalNodes>
            0 -1 7 2.2862539626657963e-03</internalNodes>
          <leafValues>
            1.8875901401042938e-01 -8.5125082731246948e-01</leafValues></_>
        <_>
          <internalNodes>
            0 -1 37 -1.0372765362262726e-02</internalNodes>
          <leafValues>
            2.5357201695442200e-01 -7.4502533674240112e-01</leafValues></_>
        <_>
          <internalNodes>
            0 -1 16 -8.5890507325530052e-03</internalNodes>
          <leafValues>
            -9.4583177566528320e-01 1.9000308215618134e-01</leafValues></_>
        <_>
          <internalNodes>
            0 -1 18 -1.3098830822855234e-03</internalNodes>
          <leafValues>
            5.6312108039855957e-01 -3.6119225621223450e-01</leafValues></_>
        <_>
          <internalNodes>
            0 -1 26 -1.4644791372120380e-03</internalNodes>
          <leafValues>
            5.9742975234985352e-01 -4.4317436218261719e-01</leafValues></_></weakClassifiers></_>
    <!-- stage 9 -->
    <_>
      <maxWeakCount>6</maxWeakCount>
      <stageThreshold>-1.6769057512283325e-01</stageThreshold>
      <weakClassifiers>
        <_>
          <internalNodes>
            0 -1 4 5.0575658679008484e-02</internalNodes>
          <leafValues>
            -7.3333334922790527e-01 2.2942779958248138e-01</leafValues></_>
        <_>
          <internalNodes>
            0 -1 30 2.8866091743111610e-03</internalNodes>
          <leafValues>
            -4.0108183026313782e-01 5.7647597789764404e-01</leafValues></_>
        <_>
          <internalNodes>
            0 -1 19 2.5711187627166510e-03</internalNodes>
          <leafValues>
            -4.0832147002220154e-01 6.0961121320724487e-01</leafValues></_>
        <_>
          <internalNodes>
            0 -1 12 -8.0450177192687988e-03</internalNodes>
          <leafValues>
            2.6437711715698242e-01 -7.1863675117492676e-01</leafValues></_>
        <_>
          <internalNodes>
            0 -1 27 -1.0735166724771261e-03</internalNodes>
          <leafValues>
            4.1688293218612671e-01 -4.1370147466659546e-01</leafValues></_>
        <_>
          <internalNodes>
            0 -1 25 4.2831571772694588e-03</internalNodes>
          <leafValues>
            -2.6897510886192322e-01 7.1978086233139038e-01</leafValues></_></weakClassifiers></_></stages>
  <features>
    <_>
      <rects>
        <_>
          1 12 12 16 -1.</_>
        <_>
          7 12 6 16 2.</_></rects>
      <tilted>0</tilted></_>
    <_>
      <rects>
        <_>
          2 12 10 15 -1.</_>
        <_>
          7 12 5 15 2.</_></rects>
      <tilted>0</tilted></_>
    <_>
      <rects>
        <_>
          4 6 36 28 -1.</_>
        <_>
          13 6 18 28 2.</_></rects>
      <tilted>0</tilted></_>
    <_>
      <rects>
        <_>
          6 12 28 16 -1.</_>
        <_>
          13 12 14 16 2.</_></rects>
      <tilted>0</tilted></_>
    <_>
      <rects>
        <_>
          8 4 24 36 -1.</_>
        <_>
          8 16 24 12 3.</_></rects>
      <tilted>0</tilted></_>
    <_>
      <rects>
        <_>
          10 21 9 8 -1.</_>
        <_>
          10 21 9 4 2.</_></rects>
      <tilted>1</tilted></_>
    <_>
      <rects>
        <_>
          11 3 17 15 -1.</_>
        <_>
          11 8 17 5 3.</_></rects>
      <tilted>0</tilted></_>
    <_>
      <rects>
        <_>
          12 8 16 24 -1.</_>
        <_>
          12 14 16 12 2.</_></rects>
      <tilted>0</tilted></_>
    <_>
      <rects>
        <_>
          13 2 15 10 -1.</_>
        <_>
          13 7 15 5 2.</_></rects>
      <tilted>0</tilted></_>
    <_>
      <rects>
        <_>
          13 4 9 9 -1.</_>
        <_>
          16 7 3 9 3.</_></rects>
      <tilted>1</tilted></_>
    <_>
      <rects>
        <_>
          13 24 14 12 -1.</_>
        <_>
          13 28 14 4 3.</_></rects>
      <tilted>0</tilted></_>
    <_>
      <rects>
        <_>
          14 0 8 12 -1.</_>
        <_>
          14 0 4 12 2.</_></rects>
      <tilted>1</tilted></_>
    <_>
      <rects>
        <_>
          14 0 26 12 -1.</_>
        <_>
          14 0 13 6 2.</_>
        <_>
          27 6 13 6 2.</_></rects>
      <tilted>0</tilted></_>
    <_>
      <rects>
        <_>
          14 14 12 12 -1.</_>
        <_>
          18 18 4 4 9.</_></rects>
      <tilted>0</tilted></_>
    <_>
      <rects>
        <_>
          15 13 12 15 -1.</_>
        <_>
          10 18 12 5 3.</_></rects>
      <tilted>1</tilted></_>
    <_>
      <rects>
        <_>
          17 17 3 3 -1.</_>
        <_>
          18 18 1 1 9.</_></rects>
      <tilted>0</tilted></_>
    <_>
      <rects>
        <_>
          17 17 6 6 -1.</_>
        <_>
          19 19 2 2 9.</_></rects>
      <tilted>0</tilted></_>
    <_>
      <rects>
        <_>
          17 19 3 2 -1.</_>
        <_>
          18 19 1 2 3.</_></rects>
      <tilted>0</tilted></_>
    <_>
      <rects>
        <_>
          17 19 4 2 -1.</_>
        <_>
          18 19 2 2 2.</_></rects>
      <tilted>0</tilted></_>
    <_>
      <rects>
        <_>
          17 20 3 3 -1.</_>
        <_>
          18 21 1 1 9.</_></rects>
      <tilted>0</tilted></_>
    <_>
      <rects>
        <_>
          18 10 12 7 -1.</_>
        <_>
          21 13 6 7 2.</_></rects>
      <tilted>1</tilted></_>
    <_>
      <rects>
        <_>
          18 18 4 1 -1.</_>
        <_>
          19 18 2 1 2.</_></rects>
      <tilted>0</tilted></_>
    <_>
      <rects>
        <_>
          18 18 3 3 -1.</_>
        <_>
          19 19 1 1 9.</_></rects>
      <tilted>0</tilted></_>
    <_>
      <rects>
        <_>
          18 21 4 1 -1.</_>
        <_>
          19 21 2 1 2.</_></rects>
      <tilted>0</tilted></_>
    <_>
      <rects>
        <_>
          19 17 2 4 -1.</_>
        <_>
          19 18 2 2 2.</_></rects>
      <tilted>0</tilted></_>
    <_>
      <rects>
        <_>
          19 19 3 3 -1.</_>
        <_>
          20 20 1 1 9.</_></rects>
      <tilted>0</tilted></_>
    <_>
      <rects>
        <_>
          19 19 4 2 -1.</_>
        <_>
          20 19 2 2 2.</_></rects>
      <tilted>0</tilted></_>
    <_>
      <rects>
        <_>
          19 19 2 4 -1.</_>
        <_>
          19 20 2 2 2.</_></rects>
      <tilted>0</tilted></_>
    <_>
      <rects>
        <_>
          19 20 2 3 -1.</_>
        <_>
          19 21 2 1 3.</_></rects>
      <tilted>0</tilted></_>
    <_>
      <rects>
        <_>
          20 19 3 2 -1.</_>
        <_>
          21 19 1 2 3.</_></rects>
      <tilted>0</tilted></_>
    <_>
      <rects>
        <_>
          20 20 3 3 -1.</_>
        <_>
          21 21 1 1 9.</_></rects>
      <tilted>0</tilted></_>
    <_>
      <rects>
        <_>
          21 15 3 3 -1.</_>
        <_>
          22 16 1 1 9.</_></rects>
      <tilted>0</tilted></_>
    <_>
      <rects>
        <_>
          21 18 1 4 -1.</_>
        <_>
          21 19 1 2 2.</_></rects>
      <tilted>0</tilted></_>
    <_>
      <rects>
        <_>
          21 22 3 3 -1.</_>
        <_>
          22 23 1 1 9.</_></rects>
      <tilted>0</tilted></_>
    <_>
      <rects>
        <_>
          22 21 3 3 -1.</_>
        <_>
          23 22 1 1 9.</_></rects>
      <tilted>0</tilted></_>
    <_>
      <rects>
        <_>
          23 11 6 12 -1.</_>
        <_>
          20 14 6 6 2.</_></rects>
      <tilted>1</tilted></_>
    <_>
      <rects>
        <_>
          27 11 10 17 -1.</_>
        <_>
          32 11 5 17 2.</_></rects>
      <tilted>0</tilted></_>
    <_>
      <rects>
        <_>
          28 0 12 24 -1.</_>
        <_>
          28 0 6 12 2.</_>
        <_>
          34 12 6 12 2.</_></rects>
      <tilted>0</tilted></_>
    <_>
      <rects>
        <_>
          28 0 12 8 -1.</_>
        <_>
          28 0 12 4 2.</_></rects>
      <tilted>1</tilted></_>
    <_>
      <rects>
        <_>
          32 20 8 12 -1.</_>
        <_>
          32 20 4 12 2.</_></rects>
      <tilted>1</tilted></_></features></cascade>
</opencv_storage>
