<?xml version="1.0"?>
<opencv_storage>
<stage8>
  <maxWeakCount>5</maxWeakCount>
  <stageThreshold>-2.4631650745868683e-01</stageThreshold>
  <weakClassifiers>
    <_>
      <internalNodes>
        0 -1 936415 2.2862539626657963e-03</internalNodes>
      <leafValues>
        1.8875901401042938e-01 -8.5125082731246948e-01</leafValues></_>
    <_>
      <internalNodes>
        0 -1 1802946 -1.0372765362262726e-02</internalNodes>
      <leafValues>
        2.5357201695442200e-01 -7.4502533674240112e-01</leafValues></_>
    <_>
      <internalNodes>
        0 -1 1282787 -8.5890507325530052e-03</internalNodes>
      <leafValues>
        -9.4583177566528320e-01 1.9000308215618134e-01</leafValues></_>
    <_>
      <internalNodes>
        0 -1 1285955 -1.3098830822855234e-03</internalNodes>
      <leafValues>
        5.6312108039855957e-01 -3.6119225621223450e-01</leafValues></_>
    <_>
      <internalNodes>
        0 -1 1404437 -1.4644791372120380e-03</internalNodes>
      <leafValues>
        5.9742975234985352e-01 -4.4317436218261719e-01</leafValues></_></weakClassifiers></stage8>
</opencv_storage>
